{"learner":{"attributes":{"scikit_learn":"{\"_estimator_type\": \"classifier\"}"},"feature_names":["Time","V1","V2","V3","V4","V5","V6","V7","V8","V9","V10","V11","V12","V13","V14","V15","V16","V17","V18","V19","V20","V21","V22","V23","V24","V25","V26","V27","V28","Amount"],"feature_types":["float","float","float","float","float","float","float","float","float","float","float","float","float","float","float","float","float","float","float","float","float","float","float","float","float","float","float","float","float","float"],"gradient_booster":{"model":{"gbtree_model_param":{"num_parallel_tree":"1","num_trees":"100"},"iteration_indptr":[0,1,2,3,4,5,6,7,8,9,10,11,12,13,14,15,16,17,18,19,20,21,22,23,24,25,26,27,28,29,30,31,32,33,34,35,36,37,38,39,40,41,42,43,44,45,46,47,48,49,50,51,52,53,54,55,56,57,58,59,60,61,62,63,64,65,66,67,68,69,70,71,72,73,74,75,76,77,78,79,80,81,82,83,84,85,86,87,88,89,90,91,92,93,94,95,96,97,98,99,100],"tree_info":[0,0,0,0,0,0,0,0,0,0,0,0,0,0,0,0,0,0,0,0,0,0,0,0,0,0,0,0,0,0,0,0,0,0,0,0,0,0,0,0,0,0,0,0,0,0,0,0,0,0,0,0,0,0,0,0,0,0,0,0,0,0,0,0,0,0,0,0,0,0,0,0,0,0,0,0,0,0,0,0,0,0,0,0,0,0,0,0,0,0,0,0,0,0,0,0,0,0,0,0],"trees":[{"base_weights":[-6.8691214E-8,1.8729143E0,-1.5041989E0,1.9916153E0,8.056506E-1,-1.7268094E0,-6.939199E-2,-5.814802E-1,1.9944507E0,-2.7772737E-1,1.8249482E0,-6.273466E-2,-1.7741904E0,7.9454434E-1,-1.029634E0,1.9957268E0,-5.608325E-1,4.6893278E-1,-5.987032E-1,1.8963805E0,-5.872129E-1,9.7361344E-1,-5.983719E-1,-1.7986124E0,3.1063968E-1,1.1533881E0,-1.280109E0,-1.31663E0,1.3720219E0,-5.380223E-1,1.9964973E0,1.1757336E0,-5.9793913E-1,1.9391334E0,-5.7865804E-1,-5.9581566E-1,1.5578647E0,-1.3836039E0,-1.9276283E0,1.630073E0,-5.9683424E-1,1.6173404E0,1.0960058E-1,1.6039158E0,-5.9837085E-1,3.8830134E-1,-5.992757E-1,-5.8875704E-1,1.8674015E0,5.9902847E-1,-4.4963288E-1,-5.95045E-1,4.588998E-1,5.871382E-1,-5.5154973E-1,-5.8972263E-1,5.519369E-1,-2.4683043E-1,-5.393592E-1,-5.954032E-1,-3.4928542E-1,-5.777102E-1,5.6832397E-1,-5.9309876E-1,5.248528E-1,2.606293E-1,-5.975767E-1,5.9289116E-1,-5.542645E-1,2.9928982E-1,-5.966352E-1,-5.380223E-1,5.881178E-1],"categories":[],"categories_nodes":[],"categories_segments":[],"categories_sizes":[],"default_left":[0,0,0,0,0,0,0,0,0,0,0,0,0,0,0,0,0,0,0,0,0,0,0,0,0,0,0,0,0,0,0,0,0,0,0,0,0,0,0,0,0,0,0,0,0,0,0,0,0,0,0,0,0,0,0,0,0,0,0,0,0,0,0,0,0,0,0,0,0,0,0,0,0],"id":0,"left_children":[1,3,5,7,9,11,13,-1,15,17,19,21,23,25,27,29,-1,31,-1,33,-1,35,-1,37,39,41,43,45,47,-1,49,51,-1,53,-1,-1,55,57,59,61,-1,63,65,67,-1,69,-1,-1,71,-1,-1,-1,-1,-1,-1,-1,-1,-1,-1,-1,-1,-1,-1,-1,-1,-1,-1,-1,-1,-1,-1,-1,-1],"loss_changes":[3.19201E5,6.3917188E3,2.007011E4,5.0990625E2,5.580177E3,4.288875E3,7.0031577E3,0E0,2.2751562E2,3.14393E3,7.07125E2,3.0190396E3,2.6935312E3,3.3097417E3,2.7574878E3,1.3603125E2,0E0,2.9758884E3,0E0,4.21708E2,0E0,1.7002913E3,0E0,2.7964688E3,1.8643396E3,1.8347124E3,1.3543848E3,4.1475117E3,7.094238E2,0E0,4.4890625E1,1.4882144E3,0E0,1.7543555E2,0E0,0E0,8.184464E2,2.8797852E3,1.7343125E3,3.704569E2,0E0,1.2495376E3,1.8635609E3,1.7170209E2,0E0,1.4797465E3,0E0,0E0,1.3032312E2,0E0,0E0,0E0,0E0,0E0,0E0,0E0,0E0,0E0,0E0,0E0,0E0,0E0,0E0,0E0,0E0,0E0,0E0,0E0,0E0,0E0,0E0,0E0,0E0],"parents":[2147483647,0,0,1,1,2,2,3,3,4,4,5,5,6,6,8,8,9,9,10,10,11,11,12,12,13,13,14,14,15,15,17,17,19,19,21,21,23,23,24,24,25,25,26,26,27,27,28,28,30,30,31,31,33,33,36,36,37,37,38,38,39,39,41,41,42,42,43,43,45,45,48,48],"right_children":[2,4,6,8,10,12,14,-1,16,18,20,22,24,26,28,30,-1,32,-1,34,-1,36,-1,38,40,42,44,46,48,-1,50,52,-1,54,-1,-1,56,58,60,62,-1,64,66,68,-1,70,-1,-1,72,-1,-1,-1,-1,-1,-1,-1,-1,-1,-1,-1,-1,-1,-1,-1,-1,-1,-1,-1,-1,-1,-1,-1,-1],"split_conditions":[-1.9078039E0,-1.3809961E0,1.1743416E0,-4.312344E-1,1.4114761E0,-1.3209518E0,-4.451107E-1,-5.814802E-1,1.0564846E0,-2.4704877E-1,3.340723E-1,-6.895216E-2,2.3445237E0,8.2444644E-1,1.9368871E0,-6.7980605E-1,-5.608325E-1,4.8630614E-2,-5.987032E-1,5.0596917E-1,-5.872129E-1,9.6230686E-2,-5.983719E-1,-4.89793E-1,-1.1132958E0,2.9097313E-1,-2.87065E0,-3.4334278E-1,-1.8843505E-1,-5.380223E-1,1.0017856E0,-7.969115E-1,-5.9793913E-1,1.2179632E0,-5.7865804E-1,-5.9581566E-1,-1.4568835E-1,-3.7151894E-1,8.233912E-1,3.2282856E-1,-5.9683424E-1,-1.4973859E0,-6.0825426E-2,1.2390622E0,-5.9837085E-1,-6.0872626E-1,-5.992757E-1,-5.8875704E-1,5.2543736E-1,5.9902847E-1,-4.4963288E-1,-5.95045E-1,4.588998E-1,5.871382E-1,-5.5154973E-1,-5.8972263E-1,5.519369E-1,-2.4683043E-1,-5.393592E-1,-5.954032E-1,-3.4928542E-1,-5.777102E-1,5.6832397E-1,-5.9309876E-1,5.248528E-1,2.606293E-1,-5.975767E-1,5.9289116E-1,-5.542645E-1,2.9928982E-1,-5.966352E-1,-5.380223E-1,5.881178E-1],"split_indices":[14,12,4,4,4,20,12,0,10,26,23,12,7,3,17,11,0,27,0,10,0,28,0,14,26,14,19,29,0,0,1,27,0,2,0,0,4,0,20,15,0,11,18,4,0,9,0,0,22,0,0,0,0,0,0,0,0,0,0,0,0,0,0,0,0,0,0,0,0,0,0,0,0],"split_type":[0,0,0,0,0,0,0,0,0,0,0,0,0,0,0,0,0,0,0,0,0,0,0,0,0,0,0,0,0,0,0,0,0,0,0,0,0,0,0,0,0,0,0,0,0,0,0,0,0,0,0,0,0,0,0,0,0,0,0,0,0,0,0,0,0,0,0,0,0,0,0,0,0],"sum_hessian":[1.1330092E5,5.0465215E4,6.2835703E4,4.541347E4,5.0517466E3,5.439596E4,8.439744E3,3.2249977E1,4.538122E4,2.4492483E3,2.602498E3,1.5059989E3,5.288996E4,4.4427466E3,3.996997E3,4.536672E4,1.44999895E1,1.7077488E3,7.4149945E2,2.5547483E3,4.7749966E1,9.804993E2,5.2549963E2,5.227771E4,6.122496E2,3.7879973E3,6.547495E2,3.5707476E3,4.262497E2,8.749993E0,4.535797E4,1.327249E3,3.8049973E2,2.5269983E3,2.774998E1,1.6124988E2,8.192494E2,1.2400491E4,3.9877223E4,3.8924973E2,2.2299985E2,2.621998E3,1.1659991E3,1.2974991E2,5.2499963E2,1.01924927E3,2.5514983E3,5.474996E1,3.7149973E2,4.535497E4,2.9999979E0,1.3324991E2,1.1939991E3,2.5154983E3,1.1499991E1,6.0249958E1,7.5899945E2,5.269496E3,7.130995E3,3.7102723E4,2.774498E3,2.649998E1,3.6274973E2,9.249993E1,2.5294983E3,8.569994E2,3.089998E2,1.17499916E2,1.2249991E1,8.117494E2,2.0749985E2,8.749993E0,3.6274973E2],"tree_param":{"num_deleted":"0","num_feature":"30","num_nodes":"73","size_leaf_vector":"1"}},{"base_weights":[2.2987496E-4,1.4257997E0,-1.1687864E0,-1.1647042E0,1.4644625E0,-1.3322979E0,-9.985547E-2,-1.6367661E0,9.356452E-1,1.543794E0,7.914576E-1,-3.567101E-2,-1.369088E0,7.137075E-1,-8.714777E-1,-1.7271549E0,-4.701425E-1,-4.6664152E-1,1.5454538E0,1.545086E0,-5.208517E-1,3.7789397E-2,1.390408E0,7.6045525E-1,-4.6366554E-1,-1.4305487E0,-8.289084E-1,1.1398011E0,-9.409194E-3,1.7562419E-1,-1.329798E0,-1.8229132E0,-4.6784085E-1,-3.871702E-1,4.8506114E-1,-4.2781547E-1,1.5456622E0,5.916476E-1,-1.6679119E0,1.4302976E0,-4.6310565E-1,-4.6184692E-1,1.1978958E0,-1.099461E0,-1.5303055E0,-1.4681655E0,9.524764E-2,1.2563225E0,-4.6337572E-1,-1.6485401E0,7.28324E-1,7.451199E-1,-1.5923404E0,-3.3520132E-1,-1.6354723E0,-4.651305E-1,-6.3974524E-1,4.6382448E-1,-4.4177818E-1,3.405438E-1,-4.7450456E-1,-6.631493E-1,-4.9151304E-1,4.3627772E-1,-5.7111686E-1,4.1894123E-1,-5.841238E-1,-4.0128705E-1,-1.0401092E-1,-4.6282476E-1,-5.8161136E-2,-4.748297E-1,-8.755E-2,-4.7836918E-1,3.013304E-1,3.97519E-1,-6.314974E-1,-6.35823E-1,-4.7374627E-1,-4.968032E-1,3.4835702E-1,3.0733728E-1,-5.373156E-1,-5.550136E-1,-4.6314797E-1,-4.9386984E-1,3.431527E-1,-5.45289E-1,-4.8112383E-1],"categories":[],"categories_nodes":[],"categories_segments":[],"categories_sizes":[],"default_left":[0,0,0,0,0,0,0,0,0,0,0,0,0,0,0,0,0,0,0,0,0,0,0,0,0,0,0,0,0,0,0,0,0,0,0,0,0,0,0,0,0,0,0,0,0,0,0,0,0,0,0,0,0,0,0,0,0,0,0,0,0,0,0,0,0,0,0,0,0,0,0,0,0,0,0,0,0,0,0,0,0,0,0,0,0,0,0,0,0],"id":1,"left_children":[1,3,5,7,9,11,13,15,17,19,21,23,25,27,29,31,-1,-1,33,35,-1,37,39,41,-1,43,45,47,49,51,53,55,-1,-1,-1,-1,57,59,61,63,-1,-1,65,67,69,71,73,75,-1,77,79,81,83,85,87,-1,-1,-1,-1,-1,-1,-1,-1,-1,-1,-1,-1,-1,-1,-1,-1,-1,-1,-1,-1,-1,-1,-1,-1,-1,-1,-1,-1,-1,-1,-1,-1,-1,-1],"loss_changes":[1.7431819E5,4.721922E3,1.0044914E4,6.892325E2,2.4780234E3,2.3777969E3,4.78795E3,8.594971E-1,1.9672543E2,1.7871875E2,2.211224E3,1.6556134E3,1.6080469E3,1.1439415E3,1.8787561E3,9.5928955E-1,0E0,0E0,2.300177E1,7.328125E1,0E0,2.0511807E3,3.2166064E2,9.0917816E2,0E0,1.4356484E3,2.9268115E3,7.3265454E2,1.6669803E3,1.2019431E3,8.2723E2,8.907196E0,0E0,0E0,0E0,0E0,5.4820312E1,1.9377361E3,4.9071045E0,2.1793408E2,0E0,0E0,4.7628052E2,1.8066133E3,5.558203E2,3.9431152E2,3.1150925E3,5.202446E2,0E0,1.0632446E1,9.831095E2,6.413579E2,7.805176E-1,1.2454794E3,9.119629E0,0E0,0E0,0E0,0E0,0E0,0E0,0E0,0E0,0E0,0E0,0E0,0E0,0E0,0E0,0E0,0E0,0E0,0E0,0E0,0E0,0E0,0E0,0E0,0E0,0E0,0E0,0E0,0E0,0E0,0E0,0E0,0E0,0E0,0E0],"parents":[2147483647,0,0,1,1,2,2,3,3,4,4,5,5,6,6,7,7,8,8,9,9,10,10,11,11,12,12,13,13,14,14,15,15,18,18,19,19,21,21,22,22,23,23,25,25,26,26,27,27,28,28,29,29,30,30,31,31,36,36,37,37,38,38,39,39,42,42,43,43,44,44,45,45,46,46,47,47,49,49,50,50,51,51,52,52,53,53,54,54],"right_children":[2,4,6,8,10,12,14,16,18,20,22,24,26,28,30,32,-1,-1,34,36,-1,38,40,42,-1,44,46,48,50,52,54,56,-1,-1,-1,-1,58,60,62,64,-1,-1,66,68,70,72,74,76,-1,78,80,82,84,86,88,-1,-1,-1,-1,-1,-1,-1,-1,-1,-1,-1,-1,-1,-1,-1,-1,-1,-1,-1,-1,-1,-1,-1,-1,-1,-1,-1,-1,-1,-1,-1,-1,-1,-1],"split_conditions":[-1.7157124E0,-4.0687117E-1,1.1743416E0,1.5168167E0,-1.6986681E0,-1.3209518E0,-9.008749E-2,-2.4704877E-1,1.3135287E0,-2.0469525E0,1.6047606E0,-6.895216E-2,8.5991096E-1,-5.6862676E-1,-6.76043E-2,4.8630614E-2,-4.701425E-1,-4.6664152E-1,1.0708207E0,-4.8228645E-1,-5.208517E-1,6.108334E-1,1.0564846E0,9.6230686E-2,-4.6366554E-1,-4.89793E-1,1.1146849E-1,7.948188E-1,5.064499E-1,-4.6007544E-2,-8.0854756E-1,-7.969115E-1,-4.6784085E-1,-3.871702E-1,4.8506114E-1,-4.2781547E-1,-1.0724139E-1,-2.4704877E-1,-1.3809961E0,1.2815857E0,-4.6310565E-1,-4.6184692E-1,5.42843E-1,8.319565E-1,3.0764225E0,2.3445237E0,2.5615844E-1,1.0677402E0,-4.6337572E-1,-3.4334278E-1,2.3071435E-1,5.8359325E-1,-3.4334278E-1,-9.0572816E-1,-3.4334278E-1,-4.651305E-1,-6.3974524E-1,4.6382448E-1,-4.4177818E-1,3.405438E-1,-4.7450456E-1,-6.631493E-1,-4.9151304E-1,4.3627772E-1,-5.7111686E-1,4.1894123E-1,-5.841238E-1,-4.0128705E-1,-1.0401092E-1,-4.6282476E-1,-5.8161136E-2,-4.748297E-1,-8.755E-2,-4.7836918E-1,3.013304E-1,3.97519E-1,-6.314974E-1,-6.35823E-1,-4.7374627E-1,-4.968032E-1,3.4835702E-1,3.0733728E-1,-5.373156E-1,-5.550136E-1,-4.6314797E-1,-4.9386984E-1,3.431527E-1,-5.45289E-1,-4.8112383E-1],"split_indices":[14,4,4,0,10,20,8,26,11,14,4,12,7,12,6,27,0,0,1,11,0,16,10,28,0,14,4,3,22,12,18,27,0,0,0,0,3,26,12,0,0,0,23,25,19,7,18,25,0,29,24,15,29,18,29,0,0,0,0,0,0,0,0,0,0,0,0,0,0,0,0,0,0,0,0,0,0,0,0,0,0,0,0,0,0,0,0,0,0],"split_type":[0,0,0,0,0,0,0,0,0,0,0,0,0,0,0,0,0,0,0,0,0,0,0,0,0,0,0,0,0,0,0,0,0,0,0,0,0,0,0,0,0,0,0,0,0,0,0,0,0,0,0,0,0,0,0,0,0,0,0,0,0,0,0,0,0,0,0,0,0,0,0,0,0,0,0,0,0,0,0,0,0,0,0,0,0,0,0,0,0],"sum_hessian":[1.0459846E5,4.7127766E4,5.7470695E4,6.926002E2,4.6435164E4,4.9845688E4,7.625009E3,5.656817E2,1.26918495E2,4.1537562E4,4.897601E3,1.3753407E3,4.8470348E4,3.71167E3,3.913339E3,2.3577878E2,3.2990292E2,2.4654034E1,1.02264465E2,4.1521734E4,1.5826541E1,2.169168E3,2.728433E3,9.0084283E2,4.744979E2,4.351738E4,4.9529663E3,2.3351287E3,1.3765414E3,1.1915895E3,2.7217495E3,1.4379323E2,9.198556E1,2.0926437E0,1.0017182E2,7.570555E0,4.1514164E4,1.6379594E3,5.312086E2,2.6923425E3,3.6090412E1,1.4355417E2,7.572887E2,1.007871E4,3.343867E4,2.9274216E3,2.0255444E3,2.2384941E3,9.663449E1,4.2686893E2,9.496724E2,9.017098E2,2.898797E2,6.4033563E2,2.0814138E3,7.967402E1,6.411921E1,4.1508887E4,5.2794943E0,1.3106696E3,3.2728986E2,2.361103E1,5.075976E2,2.6736907E3,1.8651854E1,7.128359E2,4.4452774E1,7.655755E3,2.4229546E3,3.313004E4,3.0863065E2,2.6672305E3,2.6019113E2,7.083164E2,1.317228E3,2.1942268E3,4.4267345E1,5.1028927E1,3.7584E2,1.4548407E2,8.0418835E2,8.1278455E2,8.892519E1,4.0042168E1,2.4983752E2,3.3938773E2,3.0094794E2,3.003945E2,1.7810194E3],"tree_param":{"num_deleted":"0","num_feature":"30","num_nodes":"89","size_leaf_vector":"1"}},{"base_weights":[2.2997645E-4,1.228604E0,-9.810343E-1,1.3357357E0,4.3374774E-1,-1.1209302E0,-8.86913E-2,1.338003E0,-4.4267994E-1,-1.916025E-1,1.184376E0,-2.4914098E-1,-1.1592544E0,5.6994385E-1,-7.277288E-1,-4.142962E-1,1.3395476E0,2.7623734E-1,-1.4442216E0,-1.7294198E0,1.2514402E0,1.1835284E0,-7.8957516E-1,-1.218197E0,-6.636427E-1,5.2237764E-2,1.0666169E0,1.3066559E-1,-1.1240692E0,1.3399992E0,-4.318163E-1,7.795153E-1,-4.0716225E-1,-1.5189959E0,-1.3681334E0,-6.117428E-1,-3.9608845E-1,-5.497981E-1,1.2872306E0,-4.1120628E-1,1.540093E0,-1.3968438E0,5.4328036E-2,-1.310171E0,-8.131602E-1,-1.2565525E0,1.3155015E-1,-1.7835721E0,3.0773818E-1,-1.5599813E0,1.1691571E0,8.487305E-1,-9.058888E-1,-1.4138656E0,-2.6660067E-1,4.029152E-1,3.002555E-1,3.6311334E-1,-2.5260147E-1,-5.103168E-1,-4.0863535E-1,-4.8223084E-1,-4.020895E-1,-5.3932035E-1,3.9247203E-1,3.6120823E-1,7.155524E-1,-4.4159153E-1,-4.0632352E-1,2.792772E-1,-4.2464244E-1,-3.972531E-1,8.661406E-3,-8.252305E-2,-4.2222407E-1,4.5771456E-1,-4.2625478E-1,2.8724998E-1,-2.8457308E-1,-7.196755E-1,-4.494647E-1,1.8009047E-1,-4.5295593E-1,-5.852863E-1,-4.107301E-1,3.7006196E-1,-5.1986927E-1,-5.1486766E-1,3.5760146E-1,4.2638564E-1,-4.7207794E-1,-4.4573292E-1,-4.1487628E-1,-4.1914478E-1,2.7101818E-1],"categories":[],"categories_nodes":[],"categories_segments":[],"categories_sizes":[],"default_left":[0,0,0,0,0,0,0,0,0,0,0,0,0,0,0,0,0,0,0,0,0,0,0,0,0,0,0,0,0,0,0,0,0,0,0,0,0,0,0,0,0,0,0,0,0,0,0,0,0,0,0,0,0,0,0,0,0,0,0,0,0,0,0,0,0,0,0,0,0,0,0,0,0,0,0,0,0,0,0,0,0,0,0,0,0,0,0,0,0,0,0,0,0,0,0],"id":2,"left_children":[1,3,5,7,9,11,13,15,-1,17,19,21,23,25,27,-1,29,31,33,35,37,39,41,43,45,47,49,51,53,55,-1,57,-1,59,61,-1,-1,-1,63,-1,65,67,69,71,73,75,77,79,81,83,85,87,89,91,93,-1,-1,-1,-1,-1,-1,-1,-1,-1,-1,-1,-1,-1,-1,-1,-1,-1,-1,-1,-1,-1,-1,-1,-1,-1,-1,-1,-1,-1,-1,-1,-1,-1,-1,-1,-1,-1,-1,-1,-1],"loss_changes":[1.0732963E5,3.3666602E3,6.1793438E3,2.2410156E2,2.2055393E3,1.4294219E3,2.8245073E3,1.4807422E2,0E0,1.5028391E3,4.194287E2,1.3970989E3,1.1966172E3,8.4970435E2,1.1589203E3,0E0,4.5585938E1,1.5362522E3,1.8892822E0,3.4484253E0,2.328186E2,4.5229297E2,6.7137537E2,1.3635781E3,2.0553052E3,7.600252E2,4.5607935E2,8.0222003E2,5.786638E2,3.466797E1,0E0,9.988603E2,0E0,7.468872E0,2.1484375E-1,0E0,0E0,0E0,1.3615845E2,0E0,1.2044849E2,4.3481445E-1,7.088158E2,5.598867E2,2.1680596E3,1.1436672E3,1.6627394E3,3.116742E1,7.571832E2,2.090149E0,3.055327E2,5.625824E2,6.877114E2,1.8203125E0,7.814667E2,0E0,0E0,0E0,0E0,0E0,0E0,0E0,0E0,0E0,0E0,0E0,0E0,0E0,0E0,0E0,0E0,0E0,0E0,0E0,0E0,0E0,0E0,0E0,0E0,0E0,0E0,0E0,0E0,0E0,0E0,0E0,0E0,0E0,0E0,0E0,0E0,0E0,0E0,0E0,0E0],"parents":[2147483647,0,0,1,1,2,2,3,3,4,4,5,5,6,6,7,7,9,9,10,10,11,11,12,12,13,13,14,14,16,16,17,17,18,18,19,19,20,20,21,21,22,22,23,23,24,24,25,25,26,26,27,27,28,28,29,29,31,31,33,33,34,34,38,38,40,40,41,41,42,42,43,43,44,44,45,45,46,46,47,47,48,48,49,49,50,50,51,51,52,52,53,53,54,54],"right_children":[2,4,6,8,10,12,14,16,-1,18,20,22,24,26,28,-1,30,32,34,36,38,40,42,44,46,48,50,52,54,56,-1,58,-1,60,62,-1,-1,-1,64,-1,66,68,70,72,74,76,78,80,82,84,86,88,90,92,94,-1,-1,-1,-1,-1,-1,-1,-1,-1,-1,-1,-1,-1,-1,-1,-1,-1,-1,-1,-1,-1,-1,-1,-1,-1,-1,-1,-1,-1,-1,-1,-1,-1,-1,-1,-1,-1,-1,-1,-1],"split_conditions":[-1.7157124E0,-1.3809961E0,1.1743416E0,1.0564846E0,1.4114761E0,-9.269076E-1,-9.008749E-2,-6.7980605E-1,-4.4267994E-1,5.238592E-2,6.6386455E-1,-3.4541947E-1,8.5991096E-1,4.620148E-1,-6.76043E-2,-4.142962E-1,2.56003E-1,-2.4704877E-1,6.3132226E-1,9.3991697E-1,-1.2450286E0,8.9037853E-1,5.6121355E-1,6.6292834E-1,1.8027829E-1,-4.9713638E-1,-5.227063E-1,-3.230152E-1,7.441232E-1,-2.6593938E0,-4.318163E-1,-7.9332685E-1,-4.0716225E-1,-2.4704877E-1,-1.6986681E0,-6.117428E-1,-3.9608845E-1,-5.497981E-1,-3.9945796E-2,-4.1120628E-1,-9.9282914E-1,-6.895216E-2,-1.0163702E0,2.505085E0,-2.0133813E-1,-2.1909392E0,-4.9642384E-1,-5.4705566E-1,6.847584E-1,-6.1251473E-1,1.389011E0,1.18282795E-1,-7.185101E0,-4.451107E-1,5.5200416E-1,4.029152E-1,3.002555E-1,3.6311334E-1,-2.5260147E-1,-5.103168E-1,-4.0863535E-1,-4.8223084E-1,-4.020895E-1,-5.3932035E-1,3.9247203E-1,3.6120823E-1,7.155524E-1,-4.4159153E-1,-4.0632352E-1,2.792772E-1,-4.2464244E-1,-3.972531E-1,8.661406E-3,-8.252305E-2,-4.2222407E-1,4.5771456E-1,-4.2625478E-1,2.8724998E-1,-2.8457308E-1,-7.196755E-1,-4.494647E-1,1.8009047E-1,-4.5295593E-1,-5.852863E-1,-4.107301E-1,3.7006196E-1,-5.1986927E-1,-5.1486766E-1,3.5760146E-1,4.2638564E-1,-4.7207794E-1,-4.4573292E-1,-4.1487628E-1,-4.1914478E-1,2.7101818E-1],"split_indices":[14,12,4,10,4,20,8,11,0,27,18,29,7,11,6,0,3,26,16,10,22,27,29,17,15,3,23,29,11,14,0,10,0,26,10,0,0,0,28,0,20,12,16,26,13,26,13,12,3,12,14,28,17,12,1,0,0,0,0,0,0,0,0,0,0,0,0,0,0,0,0,0,0,0,0,0,0,0,0,0,0,0,0,0,0,0,0,0,0,0,0,0,0,0,0],"split_type":[0,0,0,0,0,0,0,0,0,0,0,0,0,0,0,0,0,0,0,0,0,0,0,0,0,0,0,0,0,0,0,0,0,0,0,0,0,0,0,0,0,0,0,0,0,0,0,0,0,0,0,0,0,0,0,0,0,0,0,0,0,0,0,0,0,0,0,0,0,0,0,0,0,0,0,0,0,0,0,0,0,0,0,0,0,0,0,0,0,0,0,0,0,0,0],"sum_hessian":[8.904167E4,3.954184E4,4.9499832E4,3.4844746E4,4.697095E3,4.2791062E4,6.7087705E3,3.4817188E4,2.7557224E1,2.562781E3,2.1343142E3,1.8022161E3,4.0988848E4,3.30378E3,3.4049905E3,1.9259655E1,3.4797926E4,1.8664583E3,6.9632275E2,4.746067E1,2.0868535E3,4.9330206E2,1.308914E3,3.663091E4,4.357934E3,1.6181792E3,1.6856007E3,1.0757659E3,2.3292246E3,3.4792793E4,5.1359553E0,1.4272373E3,4.3922098E2,3.416296E2,3.5469315E2,2.4744225E1,2.2716446E1,2.336378E1,2.0634897E3,6.0080074E1,4.33222E2,7.607946E2,5.481194E2,2.9850383E4,6.780529E3,2.4961677E3,1.8617665E3,1.9696619E2,1.421213E3,6.2798008E1,1.6228027E3,6.3562366E2,4.4014215E2,1.7403829E3,5.888416E2,3.4479613E4,3.131779E2,1.1278137E3,2.994236E2,1.5356789E2,1.8806172E2,3.1045185E1,3.2364795E2,1.3385832E1,2.050104E3,3.116945E2,1.2152752E2,2.624411E2,4.9835352E2,3.43576E2,2.0454338E2,2.95414E4,3.0898245E2,3.5592073E3,3.2213218E3,1.3872122E2,2.3574465E3,1.0550819E3,8.0668463E2,6.0055355E1,1.3691083E2,1.2247451E3,1.9646788E2,1.757637E1,4.5221638E1,1.5881443E3,3.4658424E1,7.455403E1,5.6106964E2,9.7877495E1,3.4226465E2,5.0946085E2,1.2309221E3,2.993703E2,2.8947128E2],"tree_param":{"num_deleted":"0","num_feature":"30","num_nodes":"95","size_leaf_vector":"1"}},{"base_weights":[3.3119725E-4,1.1146276E0,-8.5593927E-1,1.2252359E0,4.0480113E-1,-1.0787457E0,-3.7363935E-1,1.2264686E0,-3.8762045E-1,-1.4398667E-1,1.0558877E0,-1.1350032E0,-4.8009717E-1,4.0647265E-1,-7.6816416E-1,-6.5238434E-1,1.2269619E0,2.9849744E-1,-1.0248978E0,-1.4954159E0,1.1137183E0,-6.5585864E-1,-1.2130522E0,2.96737E-1,-1.1102382E0,1.2159635E0,5.1090185E-2,8.030015E-2,-1.0005754E0,1.2272054E0,-4.8126194E-1,7.373039E-1,-9.202015E-1,-1.3727998E0,9.1419137E-1,-5.535555E-1,-3.925223E-1,-1.7805487E0,1.1530219E0,-1.2931392E0,-6.357397E-2,-1.2442056E0,-7.068334E-2,1.2072505E0,-4.0297824E-1,1.0636061E0,-3.8001597E-1,2.28368E0,9.6008766E-1,-4.9507952E-1,9.0438545E-1,-1.3048612E-1,3.8384857E0,3.681088E-1,-1.1445947E0,3.689667E-1,3.3185387E-1,2.9778028E-1,-4.3473595E-1,3.7613642E-1,-4.3997642E-1,-4.470339E-1,-3.7328595E-1,-3.770977E-1,4.2631134E-1,-7.3671436E-1,-4.5552236E-1,3.5182554E-1,-5.530173E-1,-3.8333294E-1,-4.1467413E-1,1.9945842E-1,-2.8449208E-1,-5.7388663E-2,-3.788941E-1,-3.8720393E-1,3.7539437E-1,-3.9925498E-1,6.08911E-1,-3.446865E-1,3.8008884E-1,-4.817662E-1,7.575032E-1,-4.4588336E-1,3.2997277E-1,1.8238042E-1,-2.9870883E-1,3.4820938E-1,-4.1803136E-1,1.6452543E-1,-3.97089E-1,1.5149457E0,-4.035947E-1,-4.0085456E-1,4.458943E-1,2.406645E-1,-3.646236E-1],"categories":[],"categories_nodes":[],"categories_segments":[],"categories_sizes":[],"default_left":[0,0,0,0,0,0,0,0,0,0,0,0,0,0,0,0,0,0,0,0,0,0,0,0,0,0,0,0,0,0,0,0,0,0,0,0,0,0,0,0,0,0,0,0,0,0,0,0,0,0,0,0,0,0,0,0,0,0,0,0,0,0,0,0,0,0,0,0,0,0,0,0,0,0,0,0,0,0,0,0,0,0,0,0,0,0,0,0,0,0,0,0,0,0,0,0,0],"id":3,"left_children":[1,3,5,7,9,11,13,15,-1,17,19,21,23,25,27,-1,29,31,33,35,37,39,41,43,45,47,49,51,53,55,-1,57,59,61,63,-1,-1,65,67,69,71,73,75,77,-1,79,-1,81,83,85,87,89,91,93,95,-1,-1,-1,-1,-1,-1,-1,-1,-1,-1,-1,-1,-1,-1,-1,-1,-1,-1,-1,-1,-1,-1,-1,-1,-1,-1,-1,-1,-1,-1,-1,-1,-1,-1,-1,-1,-1,-1,-1,-1,-1,-1],"loss_changes":[6.9835836E4,2.4965508E3,4.4471523E3,8.696094E1,1.5327377E3,9.528711E2,4.0259194E3,4.8808594E1,0E0,9.078725E2,2.9113086E2,9.6691016E2,1.1915923E3,1.2639271E3,1.7130972E3,0E0,2.0929688E1,8.299136E2,5.2659094E2,4.580078E-1,2.203479E2,1.3688865E3,7.917969E2,1.6303055E3,4.5848083E2,3.6401196E2,1.423904E3,1.4809314E3,1.3446001E3,7.5664062E0,0E0,6.3814746E2,4.8998962E2,8.106201E0,1.3280785E2,0E0,0E0,8.912277E-1,1.1412622E2,6.2524414E-1,1.2127839E3,4.279414E2,9.560192E2,1.4678068E3,0E0,4.2302673E1,0E0,2.4660962E2,3.7208368E2,1.0293118E3,7.038774E2,1.4349147E3,6.302235E2,1.2406997E3,8.516489E2,0E0,0E0,0E0,0E0,0E0,0E0,0E0,0E0,0E0,0E0,0E0,0E0,0E0,0E0,0E0,0E0,0E0,0E0,0E0,0E0,0E0,0E0,0E0,0E0,0E0,0E0,0E0,0E0,0E0,0E0,0E0,0E0,0E0,0E0,0E0,0E0,0E0,0E0,0E0,0E0,0E0,0E0],"parents":[2147483647,0,0,1,1,2,2,3,3,4,4,5,5,6,6,7,7,9,9,10,10,11,11,12,12,13,13,14,14,16,16,17,17,18,18,19,19,20,20,21,21,22,22,23,23,24,24,25,25,26,26,27,27,28,28,29,29,31,31,32,32,33,33,34,34,37,37,38,38,39,39,40,40,41,41,42,42,43,43,45,45,47,47,48,48,49,49,50,50,51,51,52,52,53,53,54,54],"right_children":[2,4,6,8,10,12,14,16,-1,18,20,22,24,26,28,-1,30,32,34,36,38,40,42,44,46,48,50,52,54,56,-1,58,60,62,64,-1,-1,66,68,70,72,74,76,78,-1,80,-1,82,84,86,88,90,92,94,96,-1,-1,-1,-1,-1,-1,-1,-1,-1,-1,-1,-1,-1,-1,-1,-1,-1,-1,-1,-1,-1,-1,-1,-1,-1,-1,-1,-1,-1,-1,-1,-1,-1,-1,-1,-1,-1,-1,-1,-1,-1,-1],"split_conditions":[-1.7157124E0,-1.913655E0,5.3417987E-1,1.0564846E0,1.4114761E0,1.2471738E0,-5.6862676E-1,1.3371144E-1,-3.8762045E-1,-7.9332685E-1,6.6386455E-1,-9.2256695E-1,-2.745982E-1,-6.915452E-1,-3.4334278E-1,-6.5238434E-1,-1.777208E0,6.108334E-1,1.5168167E0,2.3898095E-1,-1.2450286E0,-3.978849E-1,1.3360547E0,-3.243301E-2,-2.241075E0,-1.5010161E0,3.4816092E-1,1.574784E0,-6.0503477E-1,2.7285604E0,-4.8126194E-1,8.3772826E-1,-5.204795E0,-2.4704877E-1,1.3135287E0,-5.535555E-1,-3.925223E-1,-1.3809961E0,6.295065E-1,1.1482766E0,-4.5909393E-1,-1.3209518E0,2.413439E-1,6.3025825E-2,-4.0297824E-1,9.7349566E-1,-3.8001597E-1,-1.5844395E0,-4.556266E-1,-1.880921E0,2.4047742E-2,-3.924495E-1,1.6027173E0,-7.8174794E-1,-1.4157964E0,3.689667E-1,3.3185387E-1,2.9778028E-1,-4.3473595E-1,3.7613642E-1,-4.3997642E-1,-4.470339E-1,-3.7328595E-1,-3.770977E-1,4.2631134E-1,-7.3671436E-1,-4.5552236E-1,3.5182554E-1,-5.530173E-1,-3.8333294E-1,-4.1467413E-1,1.9945842E-1,-2.8449208E-1,-5.7388663E-2,-3.788941E-1,-3.8720393E-1,3.7539437E-1,-3.9925498E-1,6.08911E-1,-3.446865E-1,3.8008884E-1,-4.817662E-1,7.575032E-1,-4.4588336E-1,3.2997277E-1,1.8238042E-1,-2.9870883E-1,3.4820938E-1,-4.1803136E-1,1.6452543E-1,-3.97089E-1,1.5149457E0,-4.035947E-1,-4.0085456E-1,4.458943E-1,2.406645E-1,-3.646236E-1],"split_indices":[14,12,4,10,4,19,12,11,0,10,18,10,14,14,29,0,14,16,0,10,22,1,23,21,3,24,23,13,20,17,0,5,14,26,11,0,0,12,19,29,6,20,4,16,0,28,0,24,11,19,8,9,13,20,10,0,0,0,0,0,0,0,0,0,0,0,0,0,0,0,0,0,0,0,0,0,0,0,0,0,0,0,0,0,0,0,0,0,0,0,0,0,0,0,0,0,0],"split_type":[0,0,0,0,0,0,0,0,0,0,0,0,0,0,0,0,0,0,0,0,0,0,0,0,0,0,0,0,0,0,0,0,0,0,0,0,0,0,0,0,0,0,0,0,0,0,0,0,0,0,0,0,0,0,0,0,0,0,0,0,0,0,0,0,0,0,0,0,0,0,0,0,0,0,0,0,0,0,0,0,0,0,0,0,0,0,0,0,0,0,0,0,0,0,0,0,0],"sum_hessian":[7.319051E4,3.1803342E4,4.1387164E4,2.751509E4,4.288252E3,2.8308395E4,1.30787705E4,2.7502137E4,1.2953252E1,2.3273523E3,1.9608999E3,2.5875838E4,2.4325571E3,4.3927515E3,8.68602E3,3.349284E0,2.7498787E4,1.54963E3,7.777222E2,4.2911762E1,1.9179882E3,3.6258728E3,2.2249965E4,1.0897047E3,1.3428524E3,1.339413E3,3.0533386E3,1.8678201E3,6.818199E3,2.7496988E4,1.7986594E0,1.1396727E3,4.099572E2,6.5966113E2,1.1806112E2,1.1860937E1,3.1050823E1,2.5103395E1,1.8928848E3,1.746022E3,1.879851E3,2.1659209E4,5.9075653E2,7.008579E2,3.888468E2,8.978338E1,1.2530691E3,2.5740216E2,1.0820107E3,1.861967E3,1.1913716E3,1.769537E3,9.828317E1,6.4898865E2,6.1692104E3,2.6891562E4,6.0542645E2,1.0210019E3,1.186709E2,8.207972E1,3.278775E2,3.393191E2,3.2034204E2,2.2064247E1,9.599687E1,4.6804895E0,2.0422905E1,1.8811072E3,1.1777525E1,1.5023456E3,2.4367645E2,1.0311298E3,8.487211E2,3.796393E2,2.1279568E4,3.072431E2,2.8351343E2,1.7137479E2,5.294831E2,7.16599E0,8.2617386E1,1.470732E1,2.4269484E2,5.7978027E1,1.0240327E3,5.811962E2,1.2807709E3,1.0722604E3,1.1911121E2,1.1281531E3,6.4138385E2,7.9687836E1,1.8595339E1,2.5703656E2,3.919521E2,2.1617265E2,5.953038E3],"tree_param":{"num_deleted":"0","num_feature":"30","num_nodes":"97","size_leaf_vector":"1"}},{"base_weights":[-3.043485E-3,1.040264E0,-7.6576626E-1,1.1523348E0,3.561668E-1,-9.8234093E-1,-3.2749417E-1,1.153531E0,-3.4874314E-1,-1.33667E-1,9.691389E-1,-1.0372995E0,-4.3643168E-1,3.2566717E-1,-6.7068857E-1,-5.131053E-1,1.1540465E0,2.4259222E-1,-9.3480974E-1,-3.9815494E-1,1.0233736E0,-5.4887587E-1,-1.1264211E0,-1.2186637E0,8.991681E-2,7.9704636E-1,-1.3492045E-1,1.719372E-2,-8.881489E-1,1.154312E0,-3.8765973E-1,5.9581697E-1,-8.4648913E-1,-1.2584305E0,7.8938437E-1,-4.5368603E-1,1.0610355E0,-8.26658E-1,7.1635383E-1,-1.1579896E0,-7.790237E-2,-1.3304206E0,-3.540771E-1,1.0303925E0,-7.2128856E-1,9.5804113E-1,-3.7038332E-1,3.45402E-1,-9.3823534E-1,1.1042839E0,-4.2621768E-1,-1.1607139E0,-1.430957E-1,3.4714878E-1,2.8916055E-1,2.3907445E-1,-3.999239E-1,3.482721E-1,-4.0474942E-1,-4.008453E-1,-3.503738E-1,3.728107E-1,-3.653311E-1,-5.558032E-1,3.2570717E-1,-3.6876112E-1,1.884693E-1,5.341774E-1,-3.641302E-1,-4.0361386E-2,-3.543638E-1,-3.5935977E-1,2.7717525E-1,-4.3399754E-1,-3.682288E-1,4.7132036E-1,-3.6935228E-1,-3.718567E-1,4.506489E-1,3.1014264E-1,-4.5653445E-1,-1.5397531E-1,2.4801938E-1,4.4223952E-1,-4.1293186E-1,5.498818E-1,-3.810198E-1,-4.0162355E-1,1.1842948E-1,1.8115759E-1,-3.6146644E-1,2.217743E-1,-3.6953107E-1],"categories":[],"categories_nodes":[],"categories_segments":[],"categories_sizes":[],"default_left":[0,0,0,0,0,0,0,0,0,0,0,0,0,0,0,0,0,0,0,0,0,0,0,0,0,0,0,0,0,0,0,0,0,0,0,0,0,0,0,0,0,0,0,0,0,0,0,0,0,0,0,0,0,0,0,0,0,0,0,0,0,0,0,0,0,0,0,0,0,0,0,0,0,0,0,0,0,0,0,0,0,0,0,0,0,0,0,0,0,0,0,0,0],"id":4,"left_children":[1,3,5,7,9,11,13,15,-1,17,19,21,23,25,27,-1,29,31,33,-1,35,37,39,41,43,45,47,49,51,53,-1,55,57,59,61,-1,63,65,67,69,71,73,-1,75,77,79,-1,81,83,85,87,89,91,-1,-1,-1,-1,-1,-1,-1,-1,-1,-1,-1,-1,-1,-1,-1,-1,-1,-1,-1,-1,-1,-1,-1,-1,-1,-1,-1,-1,-1,-1,-1,-1,-1,-1,-1,-1,-1,-1,-1,-1],"loss_changes":[4.7065195E4,1.9146113E3,3.2427734E3,6.076172E1,1.0562628E3,6.855996E2,2.5335635E3,3.3646484E1,0E0,5.898344E2,1.959491E2,9.036738E2,8.619486E2,8.4542004E2,1.1083044E3,0E0,1.5419922E1,5.1280115E2,3.4988782E2,0E0,1.4742859E2,1.1279559E3,5.814082E2,2.0440674E0,9.560742E2,6.3060376E2,7.60496E2,8.587679E2,1.1430244E3,1.0527344E1,0E0,3.913483E2,3.3108066E2,2.145996E0,9.1981E1,0E0,1.1014307E2,1.5414502E3,1.189436E3,4.051797E2,5.7841925E2,7.0843506E-1,0E0,7.1152075E2,7.772179E2,3.3669373E2,0E0,5.102878E2,7.8161127E2,8.953035E2,9.4856396E2,3.2198926E2,1.4503859E3,0E0,0E0,0E0,0E0,0E0,0E0,0E0,0E0,0E0,0E0,0E0,0E0,0E0,0E0,0E0,0E0,0E0,0E0,0E0,0E0,0E0,0E0,0E0,0E0,0E0,0E0,0E0,0E0,0E0,0E0,0E0,0E0,0E0,0E0,0E0,0E0,0E0,0E0,0E0,0E0],"parents":[2147483647,0,0,1,1,2,2,3,3,4,4,5,5,6,6,7,7,9,9,10,10,11,11,12,12,13,13,14,14,16,16,17,17,18,18,20,20,21,21,22,22,23,23,24,24,25,25,26,26,27,27,28,28,29,29,31,31,32,32,33,33,34,34,36,36,37,37,38,38,39,39,40,40,41,41,43,43,44,44,45,45,47,47,48,48,49,49,50,50,51,51,52,52],"right_children":[2,4,6,8,10,12,14,16,-1,18,20,22,24,26,28,-1,30,32,34,-1,36,38,40,42,44,46,48,50,52,54,-1,56,58,60,62,-1,64,66,68,70,72,74,-1,76,78,80,-1,82,84,86,88,90,92,-1,-1,-1,-1,-1,-1,-1,-1,-1,-1,-1,-1,-1,-1,-1,-1,-1,-1,-1,-1,-1,-1,-1,-1,-1,-1,-1,-1,-1,-1,-1,-1,-1,-1,-1,-1,-1,-1,-1,-1],"split_conditions":[-1.7157124E0,-1.913655E0,5.3417987E-1,1.0564846E0,1.4114761E0,1.2471738E0,-5.6862676E-1,1.3371144E-1,-3.4874314E-1,-7.9332685E-1,6.6386455E-1,-9.2256695E-1,-4.1639858E-1,1.5369596E-1,-3.4334278E-1,-5.131053E-1,-1.777208E0,6.108334E-1,1.5168167E0,-3.9815494E-1,-1.2450286E0,-9.6450365E-1,1.3360547E0,-4.89793E-1,-1.694203E-1,8.388056E-1,-1.5444215E-1,6.5685445E-1,6.6292834E-1,-2.9427938E0,-3.8765973E-1,8.3772826E-1,-5.204795E0,-2.4704877E-1,1.5274947E0,-4.5368603E-1,-3.9945796E-2,7.045382E-1,-6.915452E-1,-1.3209518E0,2.413439E-1,-3.243301E-2,-3.540771E-1,-2.4796985E-1,1.3384949E0,6.413065E-1,-3.7038332E-1,4.8191777E-1,-1.7646452E0,-8.7500495E-1,1.779087E0,-2.6500447E0,8.938349E-3,3.4714878E-1,2.8916055E-1,2.3907445E-1,-3.999239E-1,3.482721E-1,-4.0474942E-1,-4.008453E-1,-3.503738E-1,3.728107E-1,-3.653311E-1,-5.558032E-1,3.2570717E-1,-3.6876112E-1,1.884693E-1,5.341774E-1,-3.641302E-1,-4.0361386E-2,-3.543638E-1,-3.5935977E-1,2.7717525E-1,-4.3399754E-1,-3.682288E-1,4.7132036E-1,-3.6935228E-1,-3.718567E-1,4.506489E-1,3.1014264E-1,-4.5653445E-1,-1.5397531E-1,2.4801938E-1,4.4223952E-1,-4.1293186E-1,5.498818E-1,-3.810198E-1,-4.0162355E-1,1.1842948E-1,1.8115759E-1,-3.6146644E-1,2.217743E-1,-3.6953107E-1],"split_indices":[14,12,4,10,4,19,12,11,0,10,18,10,4,14,29,0,14,16,0,0,22,10,23,14,3,3,25,4,17,14,0,5,14,26,0,0,28,19,14,20,4,21,0,13,12,1,0,11,21,0,4,3,8,0,0,0,0,0,0,0,0,0,0,0,0,0,0,0,0,0,0,0,0,0,0,0,0,0,0,0,0,0,0,0,0,0,0,0,0,0,0,0,0],"split_type":[0,0,0,0,0,0,0,0,0,0,0,0,0,0,0,0,0,0,0,0,0,0,0,0,0,0,0,0,0,0,0,0,0,0,0,0,0,0,0,0,0,0,0,0,0,0,0,0,0,0,0,0,0,0,0,0,0,0,0,0,0,0,0,0,0,0,0,0,0,0,0,0,0,0,0,0,0,0,0,0,0,0,0,0,0,0,0,0,0,0,0,0,0],"sum_hessian":[5.9143375E4,2.497728E4,3.4166098E4,2.1460818E4,3.516461E3,2.2865658E4,1.13004375E4,2.1450236E4,1.0582079E1,1.9549874E3,1.5614734E3,2.0773428E4,2.0922312E3,3.8924497E3,7.4079883E3,3.2636974E0,2.1446973E4,1.3307117E3,6.2427576E2,3.54865E1,1.5259869E3,3.2066743E3,1.7566754E4,8.4102625E2,1.2512051E3,1.9233278E3,1.9691218E3,1.7795955E3,5.6283926E3,2.1445174E4,1.7994585E0,1.0051587E3,3.2555298E2,5.2584753E2,9.8428246E1,2.176059E1,1.5042263E3,2.6296738E3,5.7700037E2,1.7053215E4,5.135381E2,2.0650143E2,6.345248E2,5.7930927E2,6.718958E2,1.7825978E3,1.4073006E2,1.2326556E3,7.364662E2,5.151462E2,1.2644493E3,4.120442E3,1.5079512E3,2.1123916E4,3.212576E2,9.107907E2,9.436799E1,6.493411E1,2.6061887E2,2.755197E2,2.5032777E2,8.060451E1,1.7823744E1,1.199938E1,1.4922269E3,2.0598892E3,5.697848E2,3.719762E2,2.0502415E2,3.785188E2,1.6674695E4,2.4237941E2,2.711587E2,9.088297E1,1.15618454E2,4.6778156E2,1.11527725E2,5.4525287E2,1.2664294E2,1.7303135E3,5.228424E1,4.4275314E2,7.899025E2,1.12849884E2,6.2361633E2,3.9435275E2,1.2079343E2,5.985389E2,6.659104E2,1.0032225E2,4.0201194E3,8.3308093E2,6.7487024E2],"tree_param":{"num_deleted":"0","num_feature":"30","num_nodes":"93","size_leaf_vector":"1"}},{"base_weights":[-6.350687E-3,1.0775288E0,-6.4412713E-1,1.0846925E0,-3.5073656E-1,-8.8679224E-1,-2.0920771E-1,1.0884738E0,-3.7057918E-1,-6.167233E-1,-1.0226104E0,3.3904797E-1,-5.447163E-1,1.1070995E0,7.597273E-1,-1.1086676E0,-3.858684E-1,-1.0862825E0,-3.262624E-1,-1.2334098E0,4.9500924E-1,1.2916838E-1,-8.286591E-1,1.109092E0,9.3839043E-1,9.775555E-1,-5.7276976E-1,-1.1814023E0,9.458893E-1,3.557021E-1,-7.679453E-1,-1.1088551E0,5.6270134E-1,7.7971864E-1,-1.0112671E0,-1.4361658E0,-3.5922253E-1,7.381508E-1,-3.4992194E-1,-4.936701E-1,5.913414E-1,-1.0427923E0,1.599293E-1,3.329601E-1,2.4660861E-1,-8.7537944E-1,3.1685522E-1,3.0601275E-1,-7.757616E-1,2.908778E-1,-4.5061442E-1,-3.856449E-1,-3.480482E-1,-3.2560918E-1,3.4313607E-1,-9.680041E-2,3.7035674E-1,6.56338E-3,-3.5754937E-1,-3.3779418E-1,1.4563952E-1,-3.586832E-1,4.446665E-1,3.5215876E-1,-3.6264122E-1,-3.5215917E-1,1.6361657E-1,-4.8037007E-1,-3.547327E-1,2.8346288E-1,-5.3779655E-5,-3.6427367E-1,1.9062552E-1,-3.8491297E-1,3.358145E-2,3.1430706E-1,-3.5675235E-2,-3.2693464E-1,1.5475225E-1,2.3852237E-1,-2.533861E-1],"categories":[],"categories_nodes":[],"categories_segments":[],"categories_sizes":[],"default_left":[0,0,0,0,0,0,0,0,0,0,0,0,0,0,0,0,0,0,0,0,0,0,0,0,0,0,0,0,0,0,0,0,0,0,0,0,0,0,0,0,0,0,0,0,0,0,0,0,0,0,0,0,0,0,0,0,0,0,0,0,0,0,0,0,0,0,0,0,0,0,0,0,0,0,0,0,0,0,0,0,0],"id":5,"left_children":[1,3,5,7,-1,9,11,13,-1,15,17,19,21,23,25,27,29,31,33,35,37,39,41,43,45,47,49,51,53,55,57,59,61,63,65,67,-1,69,71,73,75,77,79,-1,-1,-1,-1,-1,-1,-1,-1,-1,-1,-1,-1,-1,-1,-1,-1,-1,-1,-1,-1,-1,-1,-1,-1,-1,-1,-1,-1,-1,-1,-1,-1,-1,-1,-1,-1,-1,-1],"loss_changes":[3.2524316E4,2.8178125E2,3.125961E3,1.5375977E2,0E0,6.967412E2,1.9517247E3,1.0537695E2,0E0,7.223606E2,5.604658E2,9.8852686E2,1.2595524E3,4.4765625E0,2.7145514E2,3.0480273E2,1.2280275E3,4.3197656E2,8.046821E2,9.3573E-1,7.5330054E2,5.622176E2,9.80499E2,2.6972656E0,9.306648E1,1.24140564E2,1.90311E2,2.8486328E0,2.9395458E1,8.7921277E2,9.5756775E2,3.126953E2,2.5586295E2,3.199472E2,1.6660107E2,1.9390106E-1,0E0,4.3450623E2,6.989434E2,3.979097E2,3.6347845E2,2.793584E2,5.2728674E2,0E0,0E0,0E0,0E0,0E0,0E0,0E0,0E0,0E0,0E0,0E0,0E0,0E0,0E0,0E0,0E0,0E0,0E0,0E0,0E0,0E0,0E0,0E0,0E0,0E0,0E0,0E0,0E0,0E0,0E0,0E0,0E0,0E0,0E0,0E0,0E0,0E0,0E0],"parents":[2147483647,0,0,1,1,2,2,3,3,5,5,6,6,7,7,9,9,10,10,11,11,12,12,13,13,14,14,15,15,16,16,17,17,18,18,19,19,20,20,21,21,22,22,23,23,24,24,25,25,26,26,27,27,28,28,29,29,30,30,31,31,32,32,33,33,34,34,35,35,37,37,38,38,39,39,40,40,41,41,42,42],"right_children":[2,4,6,8,-1,10,12,14,-1,16,18,20,22,24,26,28,30,32,34,36,38,40,42,44,46,48,50,52,54,56,58,60,62,64,66,68,-1,70,72,74,76,78,80,-1,-1,-1,-1,-1,-1,-1,-1,-1,-1,-1,-1,-1,-1,-1,-1,-1,-1,-1,-1,-1,-1,-1,-1,-1,-1,-1,-1,-1,-1,-1,-1,-1,-1,-1,-1,-1,-1],"split_conditions":[-2.9427938E0,1.0564846E0,5.3417987E-1,3.2805425E-1,-3.5073656E-1,-4.4433597E-1,-4.4433597E-1,-1.3809961E0,-3.7057918E-1,-7.788592E-2,1.0666723E0,-1.0359724E0,-3.359945E-1,-1.913655E0,4.6961614E-1,2.6914182E0,3.21946E-2,3.0764225E0,-1.1132958E0,-1.5155277E-1,2.899045E-1,1.779087E0,1.0490098E0,3.8287718E0,-2.6446643E-1,-2.8275946E-1,-1.4944698E0,-7.9332685E-1,-3.4330183E-1,3.4521934E-1,-5.135784E-1,2.5138896E0,9.5297146E-1,-4.9642384E-1,2.408849E0,7.3287445E-1,-3.5922253E-1,5.1050402E-2,1.3566196E0,-7.404912E-2,-1.4926328E-1,2.9630613E0,-1.8996032E-1,3.329601E-1,2.4660861E-1,-8.7537944E-1,3.1685522E-1,3.0601275E-1,-7.757616E-1,2.908778E-1,-4.5061442E-1,-3.856449E-1,-3.480482E-1,-3.2560918E-1,3.4313607E-1,-9.680041E-2,3.7035674E-1,6.56338E-3,-3.5754937E-1,-3.3779418E-1,1.4563952E-1,-3.586832E-1,4.446665E-1,3.5215876E-1,-3.6264122E-1,-3.5215917E-1,1.6361657E-1,-4.8037007E-1,-3.547327E-1,2.8346288E-1,-5.3779655E-5,-3.6427367E-1,1.9062552E-1,-3.8491297E-1,3.358145E-2,3.1430706E-1,-3.5675235E-2,-3.2693464E-1,1.5475225E-1,2.3852237E-1,-2.533861E-1],"split_indices":[14,10,4,12,0,14,14,12,0,28,7,11,29,12,7,25,28,19,26,8,12,4,7,18,21,29,15,10,1,7,26,22,16,13,22,3,0,0,17,9,26,26,28,0,0,0,0,0,0,0,0,0,0,0,0,0,0,0,0,0,0,0,0,0,0,0,0,0,0,0,0,0,0,0,0,0,0,0,0,0,0],"split_type":[0,0,0,0,0,0,0,0,0,0,0,0,0,0,0,0,0,0,0,0,0,0,0,0,0,0,0,0,0,0,0,0,0,0,0,0,0,0,0,0,0,0,0,0,0,0,0,0,0,0,0,0,0,0,0,0,0,0,0,0,0,0,0,0,0,0,0,0,0,0,0,0,0,0,0,0,0,0,0,0,0],"sum_hessian":[4.7047902E4,1.742834E4,2.9619562E4,1.7373459E4,5.487965E1,1.9011164E4,1.0608398E4,1.7345719E4,2.7741224E1,6.363382E3,1.2647782E4,4.027324E3,6.581074E3,1.641342E4,9.32299E2,2.0311864E3,4.332196E3,1.158768E4,1.0601027E3,3.6277615E2,3.6645479E3,1.9510857E3,4.6299883E3,1.6216324E4,1.9709479E2,8.015354E2,1.307636E2,1.9621481E3,6.903832E1,1.4731117E3,2.859084E3,1.1431523E4,1.5615627E2,4.0540833E2,6.546943E2,4.883725E1,3.139389E2,2.8457634E3,8.187845E2,8.310581E2,1.1200276E3,3.8056177E3,8.243706E2,1.6169802E4,4.6522427E1,5.1373396E0,1.9195744E2,7.9279663E2,8.738795E0,4.9147697E1,8.161589E1,3.2248886E2,1.6396592E3,5.7309065E0,6.3307415E1,8.3172656E2,6.4138513E2,9.988617E2,1.8602223E3,1.1310326E4,1.2119724E2,5.35182E1,1.0263807E2,3.3868704E2,6.6721275E1,5.929998E2,6.1694496E1,2.637031E1,2.246694E1,2.2230505E3,6.227129E2,4.3605353E2,3.8273096E2,3.6030466E2,4.7075348E2,6.8161053E2,4.38417E2,3.6945354E3,1.11082466E2,5.0517365E2,3.1919693E2],"tree_param":{"num_deleted":"0","num_feature":"30","num_nodes":"81","size_leaf_vector":"1"}},{"base_weights":[-7.591E-3,1.0415093E0,-5.8029383E-1,1.0484912E0,-3.3408546E-1,-8.22102E-1,-1.820981E-1,1.0733333E0,6.4218724E-1,-5.355775E-1,-9.818363E-1,2.5722826E-1,-4.876184E-1,-2.4440658E-1,1.0735632E0,7.963553E-1,-3.9960745E-1,-1.0627562E0,-3.2253188E-1,-4.4458058E-1,-1.0684165E0,3.8542455E-1,-8.200014E-1,-7.601547E-1,-4.5646443E-3,3.231993E-1,9.413918E-1,8.7161016E-1,-1.8705031E0,-1.1327962E0,8.959919E-1,1.04965165E-1,-8.6988276E-1,-3.3420694E-1,3.5237688E-1,-3.2690662E-1,-4.0564248E-1,-8.7510705E-1,4.919682E-1,8.674768E-1,-3.5193077E-1,-7.629069E-2,-1.0386037E0,3.211108E-1,-1.1983908E0,3.033604E-1,-1.0333047E0,2.8070387E-1,-4.336976E-1,-3.7716523E-1,-7.637945E-1,-3.7647277E-1,-3.3518738E-1,-2.986075E-1,3.2773513E-1,-3.5407832E-1,1.4528851E-1,-3.473404E-1,-7.45509E-3,2.4034749E-1,-3.3444926E-1,3.0240434E-1,-3.5813454E-1,2.157312E-1,-4.1641873E-1,2.171228E-1,7.0997127E-3,3.3712587E-1,-3.192229E-1,-3.7944883E-1,7.07205E-2,-3.338643E-1,1.9877036E-1,1.0631295E-2,4.1041523E-1,-4.662501E-1,-3.5234407E-1],"categories":[],"categories_nodes":[],"categories_segments":[],"categories_sizes":[],"default_left":[0,0,0,0,0,0,0,0,0,0,0,0,0,0,0,0,0,0,0,0,0,0,0,0,0,0,0,0,0,0,0,0,0,0,0,0,0,0,0,0,0,0,0,0,0,0,0,0,0,0,0,0,0,0,0,0,0,0,0,0,0,0,0,0,0,0,0,0,0,0,0,0,0,0,0,0,0],"id":6,"left_children":[1,3,5,7,-1,9,11,13,15,17,19,21,23,-1,25,27,-1,29,31,33,35,37,39,41,43,-1,45,47,49,51,53,55,57,-1,59,-1,61,63,65,67,-1,69,71,73,75,-1,-1,-1,-1,-1,-1,-1,-1,-1,-1,-1,-1,-1,-1,-1,-1,-1,-1,-1,-1,-1,-1,-1,-1,-1,-1,-1,-1,-1,-1,-1,-1],"loss_changes":[2.2610992E4,2.0113379E2,2.3438594E3,1.3301855E2,0E0,6.9267285E2,1.2348446E3,6.2929688E0,2.3412842E2,6.087954E2,4.5181738E2,5.2147864E2,7.143428E2,0E0,5.2021484E0,1.4430789E2,0E0,2.1510559E2,9.0424084E2,7.2127795E2,1.17609375E2,4.5345972E2,2.403533E2,6.6048157E2,7.6172095E2,0E0,1.1182141E2,1.04104675E2,5.0133057E0,1.4515381E0,2.1313065E1,1.0587173E3,4.1226636E2,0E0,4.075608E2,0E0,2.9309216E2,2.162761E2,3.3764905E2,3.588604E1,0E0,3.729446E2,3.1222485E2,4.6031827E2,1.7467651E0,0E0,0E0,0E0,0E0,0E0,0E0,0E0,0E0,0E0,0E0,0E0,0E0,0E0,0E0,0E0,0E0,0E0,0E0,0E0,0E0,0E0,0E0,0E0,0E0,0E0,0E0,0E0,0E0,0E0,0E0,0E0,0E0],"parents":[2147483647,0,0,1,1,2,2,3,3,5,5,6,6,7,7,8,8,9,9,10,10,11,11,12,12,14,14,15,15,17,17,18,18,19,19,20,20,21,21,22,22,23,23,24,24,26,26,27,27,28,28,29,29,30,30,31,31,32,32,34,34,36,36,37,37,38,38,39,39,41,41,42,42,43,43,44,44],"right_children":[2,4,6,8,-1,10,12,14,16,18,20,22,24,-1,26,28,-1,30,32,34,36,38,40,42,44,-1,46,48,50,52,54,56,58,-1,60,-1,62,64,66,68,-1,70,72,74,76,-1,-1,-1,-1,-1,-1,-1,-1,-1,-1,-1,-1,-1,-1,-1,-1,-1,-1,-1,-1,-1,-1,-1,-1,-1,-1,-1,-1,-1,-1,-1,-1],"split_conditions":[-2.9427938E0,1.0564846E0,5.3417987E-1,-1.3809961E0,-3.3408546E-1,-4.4433597E-1,-4.451107E-1,-7.8867537E-1,8.0613184E-1,-7.788592E-2,-3.8192666E-1,8.388056E-1,6.6292834E-1,-2.4440658E-1,2.7285604E0,-2.8275946E-1,-3.9960745E-1,2.6914182E0,1.20687634E-1,5.776147E-1,1.3360547E0,-1.2525357E0,-2.87065E0,-3.4334278E-1,-4.4433597E-1,3.231993E-1,-3.4861436E-1,8.773863E-1,1.9726722E0,-1.7157124E0,-3.4330183E-1,-4.8228645E-1,3.7758663E-1,-3.3420694E-1,-2.6507914E-1,-3.2690662E-1,-1.5176356E0,-9.880342E-1,3.604938E-1,1.01666495E-1,-3.5193077E-1,-1.3960536E-1,5.1598935E0,-5.2380496E-1,-3.497725E-1,3.033604E-1,-1.0333047E0,2.8070387E-1,-4.336976E-1,-3.7716523E-1,-7.637945E-1,-3.7647277E-1,-3.3518738E-1,-2.986075E-1,3.2773513E-1,-3.5407832E-1,1.4528851E-1,-3.473404E-1,-7.45509E-3,2.4034749E-1,-3.3444926E-1,3.0240434E-1,-3.5813454E-1,2.157312E-1,-4.1641873E-1,2.171228E-1,7.0997127E-3,3.3712587E-1,-3.192229E-1,-3.7944883E-1,7.07205E-2,-3.338643E-1,1.9877036E-1,1.0631295E-2,4.1041523E-1,-4.662501E-1,-3.5234407E-1],"split_indices":[14,10,4,12,0,14,12,11,15,28,8,3,17,0,17,29,0,25,28,19,23,11,19,29,14,0,29,7,4,14,1,11,29,0,13,0,13,28,14,5,0,13,20,14,29,0,0,0,0,0,0,0,0,0,0,0,0,0,0,0,0,0,0,0,0,0,0,0,0,0,0,0,0,0,0,0,0],"split_type":[0,0,0,0,0,0,0,0,0,0,0,0,0,0,0,0,0,0,0,0,0,0,0,0,0,0,0,0,0,0,0,0,0,0,0,0,0,0,0,0,0,0,0,0,0,0,0,0,0,0,0,0,0,0,0,0,0,0,0,0,0,0,0,0,0,0,0,0,0,0,0,0,0,0,0,0,0],"sum_hessian":[3.7631375E4,1.3288375E4,2.4343E4,1.3245976E4,4.239967E1,1.5144995E4,9.198006E3,1.2481214E4,7.647619E2,5.422572E3,9.722423E3,3.7728916E3,5.4251143E3,1.0886374E0,1.2480125E4,7.0992017E2,5.484171E1,1.5595344E3,3.8630376E3,1.3501942E3,8.372229E3,3.372221E3,4.0067075E2,3.4679448E3,1.9571694E3,1.212727E4,3.5285547E2,6.9109174E2,1.8828444E1,1.5061017E3,5.3432804E1,2.1694456E3,1.693592E3,7.335858E2,6.1660834E2,8.1112476E3,2.609814E2,2.6225348E2,3.1099675E3,6.907984E1,3.3159088E2,1.0038317E3,2.464113E3,1.5382628E3,4.1890665E2,3.4808432E2,4.7711487E0,6.7307825E2,1.8013472E1,1.136818E1,7.4602637E0,1.6068144E2,1.3454202E3,4.645265E0,4.8787537E1,4.9390616E2,1.6755393E3,1.2629209E3,4.3067117E2,4.7252805E2,1.440803E2,9.331918E1,1.6766222E2,6.3743507E1,1.9850998E2,2.0799858E3,1.0299816E3,6.1357254E1,7.722592E0,2.0810068E2,7.95731E2,2.3613564E3,1.0275674E2,1.2093165E3,3.2894623E2,2.2350243E1,3.965564E2],"tree_param":{"num_deleted":"0","num_feature":"30","num_nodes":"77","size_leaf_vector":"1"}},{"base_weights":[-1.0122136E-2,1.0128851E0,-5.2166283E-1,1.0488601E0,5.015874E-1,-7.628036E-1,-1.5958254E-1,-3.8929373E-1,1.0503241E0,8.58972E-1,-3.8777927E-1,-4.6638355E-1,-9.48149E-1,1.1522477E-1,-5.305603E-1,3.160256E-1,9.502526E-1,9.24457E-1,-1.5328827E0,-1.3943051E0,8.588488E-1,-3.3805355E-1,-2.7567884E-1,-4.093797E-1,-1.0422342E0,-8.5759014E-2,7.6984453E-1,-1.6044766E-1,-9.7780234E-1,1.0193659E0,-4.2194468E-1,9.606799E-1,-1.496545E0,-7.5566614E-1,-3.2709995E-1,-3.718489E-1,-2.8282082E0,-4.473602E-1,1.0008079E0,1.2554077E0,-5.862691E-1,-3.249403E-1,2.718717E-1,-3.1950292E-1,-3.7741792E-1,4.9705657E-1,-4.25935E-1,8.7266135E-1,-3.9671683E-1,-1.1684519E0,2.0290568E-1,-3.3786765E-1,-1.0763574E0,3.149591E-1,-9.9635994E-1,2.9607457E-1,-3.2386222E-1,-5.930282E-1,-2.6302767E-1,-9.248873E-1,-2.5729054E-1,-2.3774795E-1,3.1517714E-1,-3.262558E-1,4.390502E-1,-3.3545417E-1,-8.9772925E-2,1.8282086E-1,-3.2428783E-1,-3.4564686E-1,2.642309E-1,2.0655812E-1,-3.7585127E-1,1.252225E-1,-2.3036325E-1,2.7933738E-1,-3.5180318E-1,-4.071256E-1,-3.3321884E-1,2.0360714E-1,-1.516735E-1,-3.3813334E-1,2.9146793E-1,1.4811614E-1,-3.393228E-1],"categories":[],"categories_nodes":[],"categories_segments":[],"categories_sizes":[],"default_left":[0,0,0,0,0,0,0,0,0,0,0,0,0,0,0,0,0,0,0,0,0,0,0,0,0,0,0,0,0,0,0,0,0,0,0,0,0,0,0,0,0,0,0,0,0,0,0,0,0,0,0,0,0,0,0,0,0,0,0,0,0,0,0,0,0,0,0,0,0,0,0,0,0,0,0,0,0,0,0,0,0,0,0,0,0],"id":7,"left_children":[1,3,5,7,9,11,13,-1,15,17,19,21,23,25,27,-1,29,31,33,35,37,-1,39,41,43,45,47,49,51,53,-1,55,57,-1,-1,-1,59,-1,61,63,65,-1,67,-1,69,71,73,75,-1,77,79,81,83,-1,-1,-1,-1,-1,-1,-1,-1,-1,-1,-1,-1,-1,-1,-1,-1,-1,-1,-1,-1,-1,-1,-1,-1,-1,-1,-1,-1,-1,-1,-1,-1],"loss_changes":[1.5826417E4,1.8491211E2,1.7602212E3,3.3714844E1,2.1158084E2,6.644175E2,8.2184973E2,0E0,1.9130859E0,7.572543E1,2.4111447E2,5.863396E2,3.769546E2,6.094219E2,5.676797E2,0E0,4.9085052E1,4.198813E1,2.9344215E0,2.0062454E1,3.0194164E1,0E0,1.7200298E3,5.0907242E2,9.5555664E1,7.029319E2,2.3521216E2,6.881715E2,9.759204E1,4.11875E1,0E0,2.548349E1,4.1199303E-1,0E0,0E0,0E0,2.1578293E0,0E0,8.1291275E0,2.9901825E2,4.5866052E2,0E0,2.5269702E2,0E0,2.0714458E2,4.3870776E2,6.4588995E2,1.251756E2,0E0,3.913025E0,4.6601035E2,2.1681241E2,1.1614697E2,0E0,0E0,0E0,0E0,0E0,0E0,0E0,0E0,0E0,0E0,0E0,0E0,0E0,0E0,0E0,0E0,0E0,0E0,0E0,0E0,0E0,0E0,0E0,0E0,0E0,0E0,0E0,0E0,0E0,0E0,0E0,0E0],"parents":[2147483647,0,0,1,1,2,2,3,3,4,4,5,5,6,6,8,8,9,9,10,10,11,11,12,12,13,13,14,14,16,16,17,17,18,18,19,19,20,20,22,22,23,23,24,24,25,25,26,26,27,27,28,28,29,29,31,31,32,32,36,36,38,38,39,39,40,40,42,42,44,44,45,45,46,46,47,47,49,49,50,50,51,51,52,52],"right_children":[2,4,6,8,10,12,14,-1,16,18,20,22,24,26,28,-1,30,32,34,36,38,-1,40,42,44,46,48,50,52,54,-1,56,58,-1,-1,-1,60,-1,62,64,66,-1,68,-1,70,72,74,76,-1,78,80,82,84,-1,-1,-1,-1,-1,-1,-1,-1,-1,-1,-1,-1,-1,-1,-1,-1,-1,-1,-1,-1,-1,-1,-1,-1,-1,-1,-1,-1,-1,-1,-1,-1],"split_conditions":[-2.9427938E0,-1.6986681E0,5.3417987E-1,1.3371144E-1,-1.07096404E-1,-4.4433597E-1,-4.6007544E-2,-3.8929373E-1,5.452777E-1,8.773863E-1,6.224717E-1,-5.04931E-1,-3.8192666E-1,8.3953714E-1,8.938349E-3,3.160256E-1,-1.3809961E0,2.93917E-1,-2.2356942E0,2.889313E0,2.1312277E-1,-3.3805355E-1,-4.0402767E-1,5.776147E-1,1.3360547E0,-8.607017E-1,1.1448803E0,-1.9175605E-1,-1.2673937E0,3.8287718E0,-4.2194468E-1,1.1081686E0,7.636187E-1,-7.5566614E-1,-3.2709995E-1,-3.718489E-1,1.3702106E0,-4.473602E-1,-8.368813E-2,-4.726879E-1,-3.2152587E-1,-3.249403E-1,-2.6507914E-1,-3.1950292E-1,1.2510104E0,2.425881E-2,-1.8308481E0,8.388056E-1,-3.9671683E-1,-3.4334278E-1,1.8864928E-1,-1.2753549E0,-2.4918828E0,3.149591E-1,-9.9635994E-1,2.9607457E-1,-3.2386222E-1,-5.930282E-1,-2.6302767E-1,-9.248873E-1,-2.5729054E-1,-2.3774795E-1,3.1517714E-1,-3.262558E-1,4.390502E-1,-3.3545417E-1,-8.9772925E-2,1.8282086E-1,-3.2428783E-1,-3.4564686E-1,2.642309E-1,2.0655812E-1,-3.7585127E-1,1.252225E-1,-2.3036325E-1,2.7933738E-1,-3.5180318E-1,-4.071256E-1,-3.3321884E-1,2.0360714E-1,-1.516735E-1,-3.3813334E-1,2.9146793E-1,1.4811614E-1,-3.393228E-1],"split_indices":[14,10,4,11,20,14,12,0,7,7,19,5,8,20,8,0,12,8,19,4,22,0,5,19,23,14,14,18,0,18,0,15,15,0,0,0,0,0,8,11,4,0,13,0,11,20,19,3,0,29,7,0,14,0,0,0,0,0,0,0,0,0,0,0,0,0,0,0,0,0,0,0,0,0,0,0,0,0,0,0,0,0,0,0,0],"split_type":[0,0,0,0,0,0,0,0,0,0,0,0,0,0,0,0,0,0,0,0,0,0,0,0,0,0,0,0,0,0,0,0,0,0,0,0,0,0,0,0,0,0,0,0,0,0,0,0,0,0,0,0,0,0,0,0,0,0,0,0,0,0,0,0,0,0,0,0,0,0,0,0,0,0,0,0,0,0,0,0,0,0,0,0,0],"sum_hessian":[3.024091E4,1.0080464E4,2.0160445E4,9.416841E3,6.6362305E2,1.2100538E4,8.059907E3,5.319327E0,9.411521E3,4.7341806E2,1.9020496E2,4.656687E3,7.443851E3,4.630491E3,3.429416E3,9.11997E3,2.9155167E2,4.6139923E2,1.2018843E1,1.0517132E2,8.503364E1,1.0422357E3,3.6144514E3,1.1074578E3,6.336393E3,3.5434402E3,1.0870511E3,1.8772593E3,1.5521567E3,2.8379654E2,7.7551174E0,4.5519186E2,6.207367E0,2.269845E0,9.748998E0,9.660586E1,8.565458E0,4.302575E0,8.0731064E1,6.090474E2,3.005404E3,5.5649585E2,5.5096185E2,6.1259272E3,2.1046591E2,1.3057935E3,2.2376467E3,1.036689E3,5.0362198E1,4.9680942E2,1.3804498E3,2.0773375E2,1.344423E3,2.8256927E2,1.2272663E0,4.4992255E2,5.2693086E0,2.2638745E0,3.9434927E0,7.08503E0,1.4804282E0,1.7776123E0,7.895345E1,4.933675E1,5.5971063E2,1.0523367E3,1.9530673E3,4.4138574E2,1.0957613E2,1.3031053E2,8.015539E1,1.177554E3,1.2823947E2,6.454738E2,1.5921729E3,1.0084097E3,2.8279238E1,1.1113069E2,3.856787E2,8.258737E2,5.545762E2,1.2969856E2,7.8035194E1,4.5006214E1,1.2994167E3],"tree_param":{"num_deleted":"0","num_feature":"30","num_nodes":"85","size_leaf_vector":"1"}},{"base_weights":[-1.0483866E-2,1.0010438E0,-4.5839408E-1,1.0315973E0,5.4295087E-1,-7.011709E-1,-1.2936132E-1,-2.9407102E-1,1.0324079E0,6.919207E-1,-1.298049E0,-3.9804566E-1,-9.173504E-1,1.0331246E0,-2.0536049E-1,3.107997E-1,9.282208E-1,8.258736E-1,-3.5328817E-1,-4.814766E-1,-3.1223306E-1,-8.5953665E-1,-1.18411236E-1,-9.975474E-1,-1.9134274E-1,-6.558765E-1,1.0519996E0,-1.0091807E-1,-1.2318271E0,9.991627E-1,-3.8488907E-1,8.857705E-1,-1.6767013E0,-9.691617E-1,7.881345E-1,-6.1424035E-1,4.0433326E-1,-1.0265472E0,5.050866E-1,5.329139E-1,-3.2533026E-1,1.065305E0,8.363828E-1,-6.2835187E-1,1.0290471E-1,-1.4934169E0,5.1523805E-1,3.073638E-1,-6.2573373E-1,2.790758E-1,-3.0126747E-1,-2.845574E-1,-7.286403E-1,-3.3162004E-1,-1.1468021E-2,3.6135435E-1,-3.0851007E-1,-2.4811141E-1,2.085243E-1,2.519041E-1,-3.3182803E-1,-3.1531888E-1,1.0117931E-1,-3.2669458E-1,3.490656E-1,-3.2617885E-1,2.5012708E-1,3.2317775E-1,2.5573304E-1,-6.9748163E-1,3.1042203E-1,4.320097E-2,-2.9376936E-1,-3.986046E-2,1.8213594E-1,-4.331922E-1,-1.0722499E0,2.98353E-1,-3.5328194E-1],"categories":[],"categories_nodes":[],"categories_segments":[],"categories_sizes":[],"default_left":[0,0,0,0,0,0,0,0,0,0,0,0,0,0,0,0,0,0,0,0,0,0,0,0,0,0,0,0,0,0,0,0,0,0,0,0,0,0,0,0,0,0,0,0,0,0,0,0,0,0,0,0,0,0,0,0,0,0,0,0,0,0,0,0,0,0,0,0,0,0,0,0,0,0,0,0,0,0,0],"id":8,"left_children":[1,3,5,7,9,11,13,-1,15,17,19,21,23,25,27,-1,29,31,-1,-1,-1,33,35,37,39,-1,41,43,45,47,-1,49,51,53,55,57,59,61,63,65,-1,67,69,71,73,75,77,-1,-1,-1,-1,-1,-1,-1,-1,-1,-1,-1,-1,-1,-1,-1,-1,-1,-1,-1,-1,-1,-1,-1,-1,-1,-1,-1,-1,-1,-1,-1,-1],"loss_changes":[1.1087846E4,1.0456348E2,1.3548381E3,1.24921875E1,1.3027283E2,6.391997E2,6.365628E2,0E0,1.6723633E0,1.10429214E2,1.145134E0,5.244433E2,3.3146533E2,2.9168274E1,7.24766E2,0E0,3.9572952E1,6.2708496E1,0E0,0E0,0E0,2.7775305E2,6.565764E2,2.240376E2,3.678919E2,0E0,3.720703E-1,6.5994525E2,2.8611255E2,2.0701431E1,0E0,3.4524323E1,3.1141033E0,1.8237341E2,7.401154E1,3.627694E2,8.118646E2,1.6861865E2,1.0391068E2,1.5407567E2,0E0,1.2753296E-1,2.136975E1,4.6384204E2,5.265061E2,5.0733643E1,6.774521E1,0E0,0E0,0E0,0E0,0E0,0E0,0E0,0E0,0E0,0E0,0E0,0E0,0E0,0E0,0E0,0E0,0E0,0E0,0E0,0E0,0E0,0E0,0E0,0E0,0E0,0E0,0E0,0E0,0E0,0E0,0E0,0E0],"parents":[2147483647,0,0,1,1,2,2,3,3,4,4,5,5,6,6,8,8,9,9,10,10,11,11,12,12,13,13,14,14,16,16,17,17,21,21,22,22,23,23,24,24,26,26,27,27,28,28,29,29,31,31,32,32,33,33,34,34,35,35,36,36,37,37,38,38,39,39,41,41,42,42,43,43,44,44,45,45,46,46],"right_children":[2,4,6,8,10,12,14,-1,16,18,20,22,24,26,28,-1,30,32,-1,-1,-1,34,36,38,40,-1,42,44,46,48,-1,50,52,54,56,58,60,62,64,66,-1,68,70,72,74,76,78,-1,-1,-1,-1,-1,-1,-1,-1,-1,-1,-1,-1,-1,-1,-1,-1,-1,-1,-1,-1,-1,-1,-1,-1,-1,-1,-1,-1,-1,-1,-1,-1],"split_conditions":[-3.1026857E0,-1.6986681E0,5.3417987E-1,1.3371144E-1,8.773863E-1,-4.4433597E-1,-2.4211972E0,-2.9407102E-1,4.3274868E-1,-1.86913E-2,-2.4354489E-1,4.293351E-2,1.0407681E0,-3.4982637E-1,8.4927577E-1,3.107997E-1,-1.3809961E0,2.93917E-1,-3.5328817E-1,-4.814766E-1,-3.1223306E-1,3.059343E0,4.211611E-1,3.0764225E0,-6.897907E-1,-6.558765E-1,-2.5258455E0,-1.5359052E-1,3.9007742E0,1.8495396E0,-3.8488907E-1,1.1081686E0,-5.205266E-1,1.4483713E0,3.110283E0,9.2463356E-1,-2.3847882E-1,2.5138896E0,1.099892E0,-2.5159058E-1,-3.2533026E-1,7.494723E-1,1.1519454E0,-3.4334278E-1,1.8549587E0,2.381042E-1,-9.14146E-1,3.073638E-1,-6.2573373E-1,2.790758E-1,-3.0126747E-1,-2.845574E-1,-7.286403E-1,-3.3162004E-1,-1.1468021E-2,3.6135435E-1,-3.0851007E-1,-2.4811141E-1,2.085243E-1,2.519041E-1,-3.3182803E-1,-3.1531888E-1,1.0117931E-1,-3.2669458E-1,3.490656E-1,-3.2617885E-1,2.5012708E-1,3.2317775E-1,2.5573304E-1,-6.9748163E-1,3.1042203E-1,4.320097E-2,-2.9376936E-1,-3.986046E-2,1.8213594E-1,-4.331922E-1,-1.0722499E0,2.98353E-1,-3.5328194E-1],"split_indices":[14,10,4,11,7,14,17,0,7,12,9,18,29,23,2,0,12,8,0,0,0,27,24,19,26,0,12,17,21,2,0,15,26,19,27,29,6,22,20,22,0,28,6,29,4,1,14,0,0,0,0,0,0,0,0,0,0,0,0,0,0,0,0,0,0,0,0,0,0,0,0,0,0,0,0,0,0,0,0],"split_type":[0,0,0,0,0,0,0,0,0,0,0,0,0,0,0,0,0,0,0,0,0,0,0,0,0,0,0,0,0,0,0,0,0,0,0,0,0,0,0,0,0,0,0,0,0,0,0,0,0,0,0,0,0,0,0,0,0,0,0,0,0,0,0,0,0,0,0,0,0,0,0,0,0,0,0,0,0,0,0],"sum_hessian":[2.4470494E4,7.509762E3,1.6960732E4,7.039028E3,4.7073416E2,9.758956E3,7.201777E3,2.3485582E0,7.0366797E3,4.3607227E2,3.4661884E1,4.0637039E3,5.695252E3,4.4116153E2,6.760615E3,6.793578E3,2.431011E2,4.0743765E2,2.8634617E1,1.341833E1,2.1243555E1,1.5324957E3,2.531208E3,5.128382E3,5.668702E2,1.902126E0,4.3925943E2,6.1372515E3,6.233637E2,2.3607518E2,7.025918E0,3.985449E2,8.892756E0,1.4372805E3,9.521526E1,1.2989572E3,1.2322507E3,5.0315923E3,9.6789444E1,3.132455E2,2.5362463E2,4.1001715E2,2.9242254E1,1.7100525E3,4.427199E3,5.4230853E2,8.105519E1,2.34811E2,1.2641714E0,3.8987674E2,8.66817E0,5.6670923E0,3.2256641E0,1.2536296E3,1.8365083E2,7.773393E1,1.7481333E1,1.1176753E3,1.8128194E2,9.5689197E2,2.7535883E2,4.9429673E3,8.862485E1,2.8102564E1,6.8686874E1,4.8646717E1,2.6459882E2,3.8437024E2,2.5646935E1,1.0935068E0,2.8148748E1,5.343755E2,1.175677E3,3.0171191E3,1.41008E3,5.313759E2,1.0932638E1,6.3492073E1,1.7563118E1],"tree_param":{"num_deleted":"0","num_feature":"30","num_nodes":"79","size_leaf_vector":"1"}},{"base_weights":[-1.0495174E-2,9.830991E-1,-3.9899975E-1,1.0171937E0,4.9831447E-1,-6.499304E-1,-1.0311348E-1,-2.6562867E-1,1.0180783E0,8.468492E-1,-2.9098257E-1,-3.472224E-1,-8.93638E-1,5.6141257E-2,-5.8439165E-1,3.0661413E-1,9.032813E-1,9.2007697E-1,-1.4517635E0,6.7548096E-1,-1.2550147E0,-1.1120596E0,-1.6963658E-1,-3.338994E-1,-1.0083525E0,4.690777E-1,-1.6257007E-1,4.6821782E-1,-8.3657324E-1,9.762903E-1,-3.4480682E-1,9.6040237E-1,-3.5253102E-1,-2.711628E-1,-5.657667E-1,2.9875138E-1,-3.2470703E-1,-3.3427685E-1,-6.0319173E-1,-1.2393105E0,-3.2505378E-1,-3.2273918E-1,4.7161326E-2,-3.1433305E-1,2.2311772E-1,-3.1052357E-1,-3.463039E-1,-1.327704E0,5.911575E-1,2.6347202E-3,-1.3247325E0,9.809578E-1,-1.3610697E0,-1.8511811E-1,-1.1144034E0,3.0169323E-1,-4.9687484E-1,2.946403E-1,-3.5083148E-1,-4.044666E-1,-3.251615E-1,3.203559E-1,-7.4481875E-2,1.5517469E-1,-3.3798432E-1,2.3148713E-1,-3.3016175E-1,-4.7430348E-1,-3.5637626E-1,2.4512245E-1,-1.9185144E-2,1.5576075E-1,-7.372878E-2,-3.776449E-1,-5.603334E-1,-4.8011655E-1,3.2134452E-1,-8.2111996E-1,-3.536663E-1,1.09439954E-1,-3.6930826E-1,-3.7323195E-1,-3.225456E-1],"categories":[],"categories_nodes":[],"categories_segments":[],"categories_sizes":[],"default_left":[0,0,0,0,0,0,0,0,0,0,0,0,0,0,0,0,0,0,0,0,0,0,0,0,0,0,0,0,0,0,0,0,0,0,0,0,0,0,0,0,0,0,0,0,0,0,0,0,0,0,0,0,0,0,0,0,0,0,0,0,0,0,0,0,0,0,0,0,0,0,0,0,0,0,0,0,0,0,0,0,0,0,0],"id":9,"left_children":[1,3,5,7,9,11,13,-1,15,17,19,21,23,25,27,-1,29,31,33,35,37,39,41,43,45,47,49,51,53,55,-1,57,-1,-1,-1,-1,-1,-1,-1,59,-1,-1,61,-1,63,-1,65,67,69,71,73,75,77,79,81,-1,-1,-1,-1,-1,-1,-1,-1,-1,-1,-1,-1,-1,-1,-1,-1,-1,-1,-1,-1,-1,-1,-1,-1,-1,-1,-1,-1],"loss_changes":[7.7586514E3,9.287793E1,1.0727583E3,9.784668E0,1.0291348E2,5.764768E2,5.0834274E2,0E0,1.4799805E0,4.4954895E1,1.0805099E2,4.7367087E2,2.7773926E2,4.5019675E2,4.3810992E2,0E0,2.8831116E1,2.2398865E1,2.9063034E-1,3.380081E1,3.923561E0,1.0446167E0,5.565141E2,2.9372766E2,6.322705E1,3.793795E2,6.257106E2,3.008638E2,2.4062982E2,1.5504639E1,0E0,1.2606491E1,0E0,0E0,0E0,0E0,0E0,0E0,0E0,4.5962524E-1,0E0,0E0,6.897984E2,0E0,1.6550243E2,0E0,1.1969027E2,2.0209045E0,2.393482E2,3.6638235E2,1.216803E1,5.992021E1,1.4404495E1,2.2995135E2,3.4104004E0,0E0,0E0,0E0,0E0,0E0,0E0,0E0,0E0,0E0,0E0,0E0,0E0,0E0,0E0,0E0,0E0,0E0,0E0,0E0,0E0,0E0,0E0,0E0,0E0,0E0,0E0,0E0,0E0],"parents":[2147483647,0,0,1,1,2,2,3,3,4,4,5,5,6,6,8,8,9,9,10,10,11,11,12,12,13,13,14,14,16,16,17,17,18,18,19,19,20,20,21,21,22,22,23,23,24,24,25,25,26,26,27,27,28,28,29,29,31,31,39,39,42,42,44,44,46,46,47,47,48,48,49,49,50,50,51,51,52,52,53,53,54,54],"right_children":[2,4,6,8,10,12,14,-1,16,18,20,22,24,26,28,-1,30,32,34,36,38,40,42,44,46,48,50,52,54,56,-1,58,-1,-1,-1,-1,-1,-1,-1,60,-1,-1,62,-1,64,-1,66,68,70,72,74,76,78,80,82,-1,-1,-1,-1,-1,-1,-1,-1,-1,-1,-1,-1,-1,-1,-1,-1,-1,-1,-1,-1,-1,-1,-1,-1,-1,-1,-1,-1],"split_conditions":[-3.1026857E0,-1.6986681E0,5.3417987E-1,1.3371144E-1,1.8486333E-1,-4.4433597E-1,1.3816494E-1,-2.6562867E-1,4.3274868E-1,2.93917E-1,-2.0670293E-1,-1.6203512E-1,-3.8192666E-1,-3.5598385E-1,-1.9709798E0,3.0661413E-1,-1.3809961E0,-1.86913E-2,-4.8515478E-1,-1.6534207E0,2.9954553E0,-1.7157124E0,-5.04931E-1,5.776147E-1,1.3360547E0,-1.5844395E0,6.312912E-1,-8.96476E-1,-3.4713674E-1,1.8495396E0,-3.4480682E-1,2.4795482E0,-3.5253102E-1,-2.711628E-1,-5.657667E-1,2.9875138E-1,-3.2470703E-1,-3.3427685E-1,-6.0319173E-1,-7.9332685E-1,-3.2505378E-1,-3.2273918E-1,-4.0402767E-1,-3.1433305E-1,2.8123376E-1,-3.1052357E-1,-1.5176356E0,-6.5766567E-1,1.8058367E-2,-3.1725374E-1,1.6831275E0,7.9397015E-2,-7.665921E-1,1.7471677E-1,-4.1941762E-1,3.0169323E-1,-4.9687484E-1,2.946403E-1,-3.5083148E-1,-4.044666E-1,-3.251615E-1,3.203559E-1,-7.4481875E-2,1.5517469E-1,-3.3798432E-1,2.3148713E-1,-3.3016175E-1,-4.7430348E-1,-3.5637626E-1,2.4512245E-1,-1.9185144E-2,1.5576075E-1,-7.372878E-2,-3.776449E-1,-5.603334E-1,-4.8011655E-1,3.2134452E-1,-8.2111996E-1,-3.536663E-1,1.09439954E-1,-3.6930826E-1,-3.7323195E-1,-3.225456E-1],"split_indices":[14,10,4,11,7,14,8,0,7,8,20,27,8,24,12,0,12,12,26,9,4,14,5,19,23,24,1,18,29,2,0,18,0,0,0,0,0,0,0,10,0,0,5,0,2,0,13,12,14,3,17,26,14,22,12,0,0,0,0,0,0,0,0,0,0,0,0,0,0,0,0,0,0,0,0,0,0,0,0,0,0,0,0],"split_type":[0,0,0,0,0,0,0,0,0,0,0,0,0,0,0,0,0,0,0,0,0,0,0,0,0,0,0,0,0,0,0,0,0,0,0,0,0,0,0,0,0,0,0,0,0,0,0,0,0,0,0,0,0,0,0,0,0,0,0,0,0,0,0,0,0,0,0,0,0,0,0,0,0,0,0,0,0,0,0,0,0,0,0],"sum_hessian":[2.0097287E4,5.6488677E3,1.444842E4,5.276665E3,3.7220258E2,7.817488E3,6.630932E3,1.9877634E0,5.2746772E3,2.5814084E2,1.14061745E2,3.4877698E3,4.3297183E3,4.982957E3,1.6479749E3,5.0907793E3,1.8389809E2,2.5075226E2,7.3885813E0,5.7108513E1,5.695323E1,6.562276E2,2.8315422E3,7.370859E2,3.5926323E3,1.7249785E3,3.2579788E3,3.1834433E2,1.3296306E3,1.7808815E2,5.8099356E0,2.4654861E2,4.203645E0,4.6288314E0,2.7597497E0,4.8671814E1,8.4367E0,5.0095924E1,6.857308E0,1.1246988E2,5.4375775E2,5.458914E2,2.285651E3,3.2266934E2,4.1441653E2,3.4526885E3,1.3994382E2,1.0911646E2,1.615862E3,2.8533625E3,4.0461612E2,2.4901143E2,6.933289E1,3.9802036E2,9.316102E2,1.7673547E2,1.3526703E0,2.4459178E2,1.9568425E0,6.1620567E1,5.084931E1,5.124792E2,1.7731716E3,3.407727E2,7.364381E1,5.636965E1,8.357417E1,3.5135445E1,7.398102E1,1.2013301E3,4.14532E2,9.261818E2,1.9271807E3,3.6377783E2,4.0838276E1,7.8412886E0,2.4117014E2,6.466731E0,6.286616E1,2.6129037E2,1.3672997E2,2.0930005E2,7.223102E2],"tree_param":{"num_deleted":"0","num_feature":"30","num_nodes":"83","size_leaf_vector":"1"}},{"base_weights":[-1.1200396E-2,9.848448E-1,-3.40409E-1,9.8987794E-1,-2.8532812E-1,-8.1920785E-1,-2.0623827E-1,1.0073442E0,6.832133E-1,1.2092536E-1,-9.556026E-1,6.242694E-2,-4.4309878E-1,1.0094914E0,7.51202E-1,8.092903E-1,-3.3995095E-1,-3.2361752E-1,9.7756416E-1,-3.1299376E-1,-2.4203864E-1,1.6104007E-1,-6.7359555E-1,2.8154638E-2,-6.917907E-1,8.3935136E-1,3.032625E-1,-5.949055E-1,2.897515E-1,8.960267E-1,-3.6819798E-1,1.3871046E0,-3.2197738E-1,-7.453944E-1,9.316527E-1,3.277235E-1,-3.329873E-1,1.0303305E0,-3.3183825E-1,-4.5105135E-1,5.1390415E-1,3.793182E-1,-7.990886E-1,2.8952497E-1,-2.611672E-1,2.8234679E-1,-3.7570372E-1,-2.6398256E-1,4.3120787E-1,-3.2207495E-1,2.2602014E-1,-2.925835E-1,3.559838E-1,1.4594582E-1,-1.916749E-1,5.4949597E-2,-3.3890793E-1,-3.2560796E-1,4.00696E-1,2.0004605E-1,-2.6508442E-1,2.1263276E-1,-3.7391108E-1,-3.8788274E-1,2.7564466E-1,-2.8132373E-1,-4.3150708E-2],"categories":[],"categories_nodes":[],"categories_segments":[],"categories_sizes":[],"default_left":[0,0,0,0,0,0,0,0,0,0,0,0,0,0,0,0,0,0,0,0,0,0,0,0,0,0,0,0,0,0,0,0,0,0,0,0,0,0,0,0,0,0,0,0,0,0,0,0,0,0,0,0,0,0,0,0,0,0,0,0,0,0,0,0,0,0,0],"id":10,"left_children":[1,3,5,7,-1,9,11,13,15,17,19,21,23,25,27,29,-1,-1,31,-1,33,35,37,39,41,43,-1,-1,-1,45,-1,47,-1,49,51,53,55,57,-1,59,61,63,65,-1,-1,-1,-1,-1,-1,-1,-1,-1,-1,-1,-1,-1,-1,-1,-1,-1,-1,-1,-1,-1,-1,-1,-1],"loss_changes":[5.4636973E3,4.127173E1,8.0433167E2,2.142749E1,0E0,3.5156897E2,6.226047E2,1.3891602E0,5.25802E1,3.5883325E2,1.4955981E2,3.3288077E2,6.09393E2,6.201172E-2,2.3256748E1,3.846797E1,0E0,0E0,1.7252083E2,0E0,1.5626068E2,3.331103E2,4.0051657E2,4.185401E2,3.9146106E2,8.816603E0,0E0,0E0,0E0,2.0906631E1,0E0,2.0652893E1,0E0,9.173064E1,3.979918E1,4.6442715E2,4.1993744E2,7.2651924E1,0E0,4.382767E2,3.0717377E2,2.8138647E2,2.809662E2,0E0,0E0,0E0,0E0,0E0,0E0,0E0,0E0,0E0,0E0,0E0,0E0,0E0,0E0,0E0,0E0,0E0,0E0,0E0,0E0,0E0,0E0,0E0,0E0],"parents":[2147483647,0,0,1,1,2,2,3,3,5,5,6,6,7,7,8,8,9,9,10,10,11,11,12,12,13,13,14,14,15,15,18,18,20,20,21,21,22,22,23,23,24,24,25,25,29,29,31,31,33,33,34,34,35,35,36,36,37,37,39,39,40,40,41,41,42,42],"right_children":[2,4,6,8,-1,10,12,14,16,18,20,22,24,26,28,30,-1,-1,32,-1,34,36,38,40,42,44,-1,-1,-1,46,-1,48,-1,50,52,54,56,58,-1,60,62,64,66,-1,-1,-1,-1,-1,-1,-1,-1,-1,-1,-1,-1,-1,-1,-1,-1,-1,-1,-1,-1,-1,-1,-1,-1],"split_conditions":[-3.4306679E0,9.726998E-1,-3.3395755E-1,-1.6986681E0,-2.8532812E-1,-1.368939E0,-4.4433597E-1,2.8523297E0,-3.3080685E-1,9.5803195E-1,1.753758E0,8.2444644E-1,-6.1251473E-1,6.7394716E-1,-3.7193483E-1,8.773863E-1,-3.3995095E-1,-3.2361752E-1,1.0232373E0,-3.1299376E-1,-4.1639858E-1,6.413065E-1,-1.8565351E0,6.010527E-1,-3.502917E-1,-2.0639338E0,3.032625E-1,-5.949055E-1,2.897515E-1,1.825176E-1,-3.6819798E-1,-9.327033E-1,-3.2197738E-1,1.5168167E0,9.4719994E-1,7.393809E-1,-1.4507943E0,6.0333735E-1,-3.3183825E-1,-3.4861436E-1,1.0084062E0,1.806867E-1,8.773863E-1,2.8952497E-1,-2.611672E-1,2.8234679E-1,-3.7570372E-1,-2.6398256E-1,4.3120787E-1,-3.2207495E-1,2.2602014E-1,-2.925835E-1,3.559838E-1,1.4594582E-1,-1.916749E-1,5.4949597E-2,-3.3890793E-1,-3.2560796E-1,4.00696E-1,2.0004605E-1,-2.6508442E-1,2.1263276E-1,-3.7391108E-1,-3.8788274E-1,2.7564466E-1,-2.8132373E-1,-4.3150708E-2],"split_indices":[14,10,4,10,0,10,14,16,12,15,16,3,12,11,15,7,0,0,15,0,4,1,13,22,29,10,0,0,0,8,0,4,0,0,25,5,14,21,0,29,13,27,7,0,0,0,0,0,0,0,0,0,0,0,0,0,0,0,0,0,0,0,0,0,0,0,0],"split_type":[0,0,0,0,0,0,0,0,0,0,0,0,0,0,0,0,0,0,0,0,0,0,0,0,0,0,0,0,0,0,0,0,0,0,0,0,0,0,0,0,0,0,0,0,0,0,0,0,0,0,0,0,0,0,0,0,0,0,0,0,0,0,0,0,0,0,0],"sum_hessian":[1.6660332E4,4.138127E3,1.2522204E4,4.1278843E3,1.0243123E1,2.7398235E3,9.782381E3,3.903285E3,2.2459918E2,3.471465E2,2.392677E3,4.5838105E3,5.1985703E3,3.8679194E3,3.5365345E1,2.1053984E2,1.4059332E1,1.4451134E2,2.026352E2,2.1303555E3,2.6232153E2,4.0429172E3,5.4089343E2,1.7960573E3,3.402513E3,3.6101475E1,3.831818E3,1.9744282E0,3.339092E1,2.0247672E2,8.063134E0,1.6917525E2,3.3459946E1,1.8384265E2,7.847887E1,3.0232258E3,1.0196912E3,1.092256E2,4.3166782E2,9.0415424E2,8.91903E2,3.0957935E2,3.0929336E3,3.403447E1,2.0670063E0,1.988613E2,3.6154087E0,3.31083E0,1.6586441E2,1.5105096E2,3.279169E1,8.922116E0,6.955675E1,2.5971606E3,4.2606522E2,6.1926514E2,4.004261E2,1.3452642E1,9.577296E1,2.5210329E2,6.5205096E2,8.035438E2,8.83592E1,7.5172676E1,2.3440666E2,2.552394E3,5.4053955E2],"tree_param":{"num_deleted":"0","num_feature":"30","num_nodes":"67","size_leaf_vector":"1"}},{"base_weights":[-1.2327944E-2,9.799986E-1,-2.9441914E-1,9.846819E-1,-2.719155E-1,-6.874663E-1,-1.3408837E-1,9.9822646E-1,7.058783E-1,2.8367743E-1,-8.495764E-1,8.2324076E-1,-1.8670844E-1,1.0007255E0,3.1153288E-1,-1.498548E0,8.194109E-1,7.5787646E-1,-3.347159E-1,-9.7039187E-1,-5.061019E-2,1.0021672E0,-3.3274016E-1,-1.1846211E-1,-1.0763172E0,3.0172288E-1,9.332319E-1,2.7256304E-1,-3.757964E-1,-6.630037E-1,-2.8057745E-1,8.969341E-1,-2.8661114E-1,-3.166086E-1,1.0904192E0,-1.0065248E0,5.5820525E-1,-3.1308421E-1,6.38849E-1,1.0392406E0,-2.8721693E-1,-4.956615E-1,5.6108747E-2,5.333508E-1,-1.3563715E0,2.964182E-1,-1.4445831E-1,-2.8500015E-1,2.796675E-1,-2.9968616E-1,3.6109427E-1,-3.1250748E-1,1.4596447E-1,3.1814712E-1,-3.0442473E-1,2.861146E-1,-3.215464E-1,-2.5079468E-1,3.1554168E-1,-2.782452E-1,9.978189E-2,-1.0309306E-1,7.406644E-2,2.8112093E-1,-3.319476E-1,-5.2621025E-1,-3.613234E-1],"categories":[],"categories_nodes":[],"categories_segments":[],"categories_sizes":[],"default_left":[0,0,0,0,0,0,0,0,0,0,0,0,0,0,0,0,0,0,0,0,0,0,0,0,0,0,0,0,0,0,0,0,0,0,0,0,0,0,0,0,0,0,0,0,0,0,0,0,0,0,0,0,0,0,0,0,0,0,0,0,0,0,0,0,0,0,0],"id":11,"left_children":[1,3,5,7,-1,9,11,13,15,17,19,21,23,25,27,29,31,33,-1,35,37,39,-1,41,43,-1,45,-1,-1,-1,-1,47,-1,-1,49,51,53,-1,55,57,-1,59,61,63,65,-1,-1,-1,-1,-1,-1,-1,-1,-1,-1,-1,-1,-1,-1,-1,-1,-1,-1,-1,-1,-1,-1],"loss_changes":[3.8775225E3,2.797998E1,6.796015E2,1.0847412E1,0E0,4.921748E2,3.8612738E2,4.6904297E0,3.7552483E1,2.9796106E2,2.5845105E2,1.3920203E2,4.408676E2,4.4433594E-2,1.2364204E1,9.2368126E-1,1.9936958E1,2.0315648E2,0E0,1.2904321E2,2.4221706E2,2.7588928E1,0E0,4.4432104E2,2.3396698E2,0E0,1.7137924E1,0E0,0E0,0E0,0E0,9.579849E0,0E0,0E0,6.829208E1,1.1984473E2,4.402422E1,0E0,1.13518394E2,9.355804E0,0E0,7.6385785E2,3.51926E2,5.2276134E1,2.453711E1,0E0,0E0,0E0,0E0,0E0,0E0,0E0,0E0,0E0,0E0,0E0,0E0,0E0,0E0,0E0,0E0,0E0,0E0,0E0,0E0,0E0,0E0],"parents":[2147483647,0,0,1,1,2,2,3,3,5,5,6,6,7,7,8,8,9,9,10,10,11,11,12,12,13,13,14,14,15,15,16,16,17,17,19,19,20,20,21,21,23,23,24,24,26,26,31,31,34,34,35,35,36,36,38,38,39,39,41,41,42,42,43,43,44,44],"right_children":[2,4,6,8,-1,10,12,14,16,18,20,22,24,26,28,30,32,34,-1,36,38,40,-1,42,44,-1,46,-1,-1,-1,-1,48,-1,-1,50,52,54,-1,56,58,-1,60,62,64,66,-1,-1,-1,-1,-1,-1,-1,-1,-1,-1,-1,-1,-1,-1,-1,-1,-1,-1,-1,-1,-1,-1],"split_conditions":[-3.6288598E0,9.726998E-1,-8.217739E-3,4.3274868E-1,-2.719155E-1,-1.368939E0,-2.4433653E0,2.3831737E0,1.0021867E0,-4.556266E-1,1.5637852E0,6.76897E-1,8.4927577E-1,4.3102636E0,-1.5086058E0,-2.2356942E0,-7.3954797E-1,-7.8867537E-1,-3.347159E-1,3.0764225E0,8.577934E-1,1.0111011E0,-3.3274016E-1,-7.113567E-2,-1.3209518E0,3.0172288E-1,3.289633E0,2.7256304E-1,-3.757964E-1,-6.630037E-1,-2.8057745E-1,-7.819201E0,-2.8661114E-1,-3.166086E-1,-3.978849E-1,2.5138896E0,3.1333275E0,-3.1308421E-1,-2.4796985E-1,4.7539416E-1,-2.8721693E-1,7.518496E-1,-3.8112894E-1,-9.14146E-1,-7.3954797E-1,2.964182E-1,-1.4445831E-1,-2.8500015E-1,2.796675E-1,-2.9968616E-1,3.6109427E-1,-3.1250748E-1,1.4596447E-1,3.1814712E-1,-3.0442473E-1,2.861146E-1,-3.215464E-1,-2.5079468E-1,3.1554168E-1,-2.782452E-1,9.978189E-2,-1.0309306E-1,7.406644E-2,2.8112093E-1,-3.319476E-1,-5.2621025E-1,-3.613234E-1],"split_indices":[14,10,4,7,0,10,16,16,11,11,16,17,2,27,6,19,12,11,0,19,11,18,0,5,20,0,8,0,0,0,0,14,0,0,1,22,19,0,13,4,0,20,3,14,12,0,0,0,0,0,0,0,0,0,0,0,0,0,0,0,0,0,0,0,0,0,0],"split_type":[0,0,0,0,0,0,0,0,0,0,0,0,0,0,0,0,0,0,0,0,0,0,0,0,0,0,0,0,0,0,0,0,0,0,0,0,0,0,0,0,0,0,0,0,0,0,0,0,0,0,0,0,0,0,0,0,0,0,0,0,0,0,0,0,0,0,0],"sum_hessian":[1.3849896E4,3.0651143E3,1.0784782E4,3.0580002E3,7.1140404E0,3.1237336E3,7.661049E3,2.913861E3,1.4413898E2,4.467377E2,2.6769958E3,3.983907E2,7.262658E3,2.9028396E3,1.1021498E1,6.462347E0,1.3767662E2,3.3401273E2,1.12724976E2,2.32518E3,3.5181592E2,3.6506885E2,3.3321827E1,6.7462524E3,5.164056E2,2.6890366E3,2.1380315E2,8.280283E0,2.7412138E0,1.5637937E0,4.8985534E0,1.3238846E2,5.2881594E0,5.14268E1,2.8258594E2,2.2718203E3,5.3359745E1,1.4396071E2,2.0785521E2,3.587512E2,6.317662E0,2.133819E3,4.612433E3,7.639657E1,4.40009E2,2.0611674E2,7.6864014E0,1.9962472E0,1.3039221E2,1.4124676E1,2.6846127E2,2.2198381E3,5.1982086E1,4.0691647E1,1.26681E1,1.7591818E2,3.1937037E1,1.9516469E0,3.5679956E2,1.4024983E3,7.3132086E2,1.4898511E3,3.122582E3,6.1647823E1,1.4748741E1,1.1873925E2,3.2126974E2],"tree_param":{"num_deleted":"0","num_feature":"30","num_nodes":"67","size_leaf_vector":"1"}},{"base_weights":[-1.1913608E-2,9.668196E-1,-2.4798305E-1,9.716041E-1,-2.6046976E-1,-6.6882426E-1,-1.0712369E-1,9.79961E-1,3.8361326E-1,2.5044885E-1,-8.298768E-1,1.1747285E-1,-3.2348454E-1,9.941241E-1,7.526517E-1,-5.697428E-1,7.6742584E-1,6.740644E-1,-3.285743E-1,-9.550871E-1,-5.77921E-2,6.645817E-1,-7.421676E-3,5.428936E-5,-6.6364604E-1,3.003527E-1,9.0746146E-1,8.436276E-1,-3.412131E-1,2.7943152E-1,-3.4722313E-1,-3.1026834E-1,9.623707E-1,-1.8864799E-1,-3.0957013E-1,-8.003609E-1,8.167336E-1,-1.3733461E0,7.4630374E-1,-8.0605656E-1,1.1826967E-1,-6.871746E-1,2.5387335E-1,-1.0103608E0,-2.645214E-1,-7.331183E-2,3.0011323E-1,2.698403E-1,-3.1803092E-1,-3.3738494E-1,3.267095E-1,-3.0905467E-1,2.2240101E-1,-3.122033E-1,1.6385628E-1,-3.011178E-1,3.2180586E-1,-5.581785E-1,-3.3336526E-1,-1.6143966E-1,2.4866557E-1,1.568063E-1,-3.5253665E-1,5.9365988E-2,-2.82811E-1,-3.296333E-1,2.161514E-1,1.23989366E-1,-3.7384987E-1,-3.2520005E-1,2.8754047E-1,8.65363E-2,-2.162401E-1],"categories":[],"categories_nodes":[],"categories_segments":[],"categories_sizes":[],"default_left":[0,0,0,0,0,0,0,0,0,0,0,0,0,0,0,0,0,0,0,0,0,0,0,0,0,0,0,0,0,0,0,0,0,0,0,0,0,0,0,0,0,0,0,0,0,0,0,0,0,0,0,0,0,0,0,0,0,0,0,0,0,0,0,0,0,0,0,0,0,0,0,0,0],"id":12,"left_children":[1,3,5,7,-1,9,11,13,15,17,19,21,23,25,27,-1,29,31,-1,33,35,37,39,41,43,-1,45,47,-1,-1,-1,-1,49,51,-1,53,55,57,59,61,63,65,67,69,71,-1,-1,-1,-1,-1,-1,-1,-1,-1,-1,-1,-1,-1,-1,-1,-1,-1,-1,-1,-1,-1,-1,-1,-1,-1,-1,-1,-1],"loss_changes":[2.7325352E3,2.1021973E1,5.6476447E2,1.0889893E1,0E0,3.539419E2,3.4700327E2,6.527832E0,3.1047222E1,2.0422318E2,1.9651111E2,2.3944368E2,4.0027097E2,3.894043E-1,2.4459785E1,0E0,1.0430159E1,1.350127E2,0E0,1.0280383E2,1.8559947E2,1.0948865E2,2.8656833E2,3.2549704E2,2.45078E2,0E0,1.8494705E1,1.48761215E1,0E0,0E0,0E0,0E0,6.290474E1,1.2644368E2,0E0,5.057186E1,6.2243767E1,1.184433E0,6.6931335E1,1.909841E2,2.0854753E2,2.924109E2,3.264033E2,1.3854285E2,2.085004E2,0E0,0E0,0E0,0E0,0E0,0E0,0E0,0E0,0E0,0E0,0E0,0E0,0E0,0E0,0E0,0E0,0E0,0E0,0E0,0E0,0E0,0E0,0E0,0E0,0E0,0E0,0E0,0E0],"parents":[2147483647,0,0,1,1,2,2,3,3,5,5,6,6,7,7,8,8,9,9,10,10,11,11,12,12,13,13,14,14,16,16,17,17,19,19,20,20,21,21,22,22,23,23,24,24,26,26,27,27,32,32,33,33,35,35,36,36,37,37,38,38,39,39,40,40,41,41,42,42,43,43,44,44],"right_children":[2,4,6,8,-1,10,12,14,16,18,20,22,24,26,28,-1,30,32,-1,34,36,38,40,42,44,-1,46,48,-1,-1,-1,-1,50,52,-1,54,56,58,60,62,64,66,68,70,72,-1,-1,-1,-1,-1,-1,-1,-1,-1,-1,-1,-1,-1,-1,-1,-1,-1,-1,-1,-1,-1,-1,-1,-1,-1,-1,-1,-1],"split_conditions":[-3.6288598E0,9.726998E-1,-8.217739E-3,2.8523297E0,-2.6046976E-1,-1.368939E0,-4.4433597E-1,-1.913655E0,1.7205943E0,-4.556266E-1,1.5637852E0,-5.459412E-1,-1.1113303E-1,4.3102636E0,8.0613184E-1,-5.697428E-1,-2.5335565E-1,-7.8867537E-1,-3.285743E-1,-7.71449E-1,-4.1639858E-1,-2.3976347E0,-6.631298E-1,-4.0273213E-1,4.8191777E-1,3.003527E-1,-5.703086E-1,-3.2017976E-1,-3.412131E-1,2.7943152E-1,-3.4722313E-1,-3.1026834E-1,-5.010591E-1,1.582371E0,-3.0957013E-1,1.5168167E0,-4.4313407E-1,-5.05117E-1,-1.0420308E0,-1.3763686E0,1.6079891E0,9.63279E-1,5.959715E-1,4.917296E0,-7.990309E-1,-7.331183E-2,3.0011323E-1,2.698403E-1,-3.1803092E-1,-3.3738494E-1,3.267095E-1,-3.0905467E-1,2.2240101E-1,-3.122033E-1,1.6385628E-1,-3.011178E-1,3.2180586E-1,-5.581785E-1,-3.3336526E-1,-1.6143966E-1,2.4866557E-1,1.568063E-1,-3.5253665E-1,5.9365988E-2,-2.82811E-1,-3.296333E-1,2.161514E-1,1.23989366E-1,-3.7384987E-1,-3.2520005E-1,2.8754047E-1,8.65363E-2,-2.162401E-1],"split_indices":[14,10,4,16,0,10,14,12,2,11,16,20,8,27,15,0,8,11,0,8,4,2,11,6,11,0,26,29,0,0,0,0,6,22,0,0,5,12,5,22,18,21,18,4,19,0,0,0,0,0,0,0,0,0,0,0,0,0,0,0,0,0,0,0,0,0,0,0,0,0,0,0,0],"split_type":[0,0,0,0,0,0,0,0,0,0,0,0,0,0,0,0,0,0,0,0,0,0,0,0,0,0,0,0,0,0,0,0,0,0,0,0,0,0,0,0,0,0,0,0,0,0,0,0,0,0,0,0,0,0,0,0,0,0,0,0,0,0,0,0,0,0,0,0,0,0,0,0,0],"sum_hessian":[1.182461E4,2.2972444E3,9.527366E3,2.2917397E3,5.504725E0,2.3882668E3,7.139099E3,2.2589673E3,3.277248E1,3.5595474E2,2.032312E3,3.503106E3,3.6359932E3,2.1232957E3,1.3567143E2,4.1488376E0,2.8623644E1,2.7111026E2,8.484447E1,1.7485153E3,2.8379684E2,6.502632E2,2.8528428E3,1.8640416E3,1.7719517E3,1.9537706E3,1.6952516E2,1.2996906E2,5.7023754E0,2.685174E1,1.7719029E0,3.8774387E1,2.3233589E2,1.5958998E2,1.5889253E3,1.5352336E2,1.3027348E2,2.4461212E1,6.25802E2,3.8719803E2,2.4656448E3,5.02308E2,1.3617335E3,9.474135E2,8.2453815E2,1.2532744E1,1.5699242E2,1.2677794E2,3.1911154E0,1.2843026E1,2.1949286E2,8.372252E1,7.5867455E1,1.3046637E2,2.3057003E1,1.5698264E1,1.1457521E2,6.423355E0,1.8037855E1,3.7471416E1,5.8833057E2,8.407763E1,3.031204E2,2.2942913E3,1.7135347E2,3.8883328E2,1.1347475E2,1.2315669E3,1.301667E2,9.1368866E2,3.3724888E1,3.729358E2,4.5160236E2],"tree_param":{"num_deleted":"0","num_feature":"30","num_nodes":"73","size_leaf_vector":"1"}},{"base_weights":[-1.5043532E-2,9.528163E-1,-2.1621846E-1,9.757561E-1,5.3171927E-1,-6.524325E-1,-9.342566E-2,9.775173E-1,-2.2457954E-1,-3.92918E-1,6.739542E-1,2.196803E-1,-8.1365526E-1,-1.1639569E0,-5.472908E-2,9.803784E-1,2.63451E-1,7.944757E-1,-2.766498E-1,-3.1698015E-1,6.297794E-1,-9.411835E-1,-6.1066575E-2,-1.3993196E0,-1.1198626E0,2.1071078E-2,-6.454596E-1,9.89351E-1,8.667441E-1,2.5125566E-1,-2.7743036E-1,8.455875E-1,-4.192445E-1,8.7047553E-1,-3.1873003E-1,-1.8086913E-1,-3.0730549E-1,-7.660077E-1,7.4511015E-1,-4.652042E-1,-3.1406626E-1,-3.1966916E-1,-3.7890643E-1,1.835973E-1,-2.8719303E-1,-9.438803E-1,4.5635837E-1,2.014294E-1,2.972423E-1,-6.8322375E-2,3.0007517E-1,-2.1572897E-1,2.6451054E-1,-3.3025557E-1,2.9887056E-1,-3.0501878E-1,1.8093131E-1,-3.0816042E-1,1.283382E-1,-2.916729E-1,2.9301122E-1,1.467981E-1,-3.2252282E-2,5.371101E-3,-2.7696642E-1,2.1290784E-1,-3.2303542E-1,2.8826502E-1,-3.1335488E-1],"categories":[],"categories_nodes":[],"categories_segments":[],"categories_sizes":[],"default_left":[0,0,0,0,0,0,0,0,0,0,0,0,0,0,0,0,0,0,0,0,0,0,0,0,0,0,0,0,0,0,0,0,0,0,0,0,0,0,0,0,0,0,0,0,0,0,0,0,0,0,0,0,0,0,0,0,0,0,0,0,0,0,0,0,0,0,0,0,0],"id":13,"left_children":[1,3,5,7,9,11,13,15,-1,-1,17,19,21,23,25,27,29,31,-1,-1,33,35,37,39,41,43,45,47,49,-1,-1,51,-1,53,-1,55,-1,57,59,-1,-1,-1,-1,61,63,65,67,-1,-1,-1,-1,-1,-1,-1,-1,-1,-1,-1,-1,-1,-1,-1,-1,-1,-1,-1,-1,-1,-1],"loss_changes":[1.9513682E3,1.6141235E1,4.4437308E2,5.6951904E0,2.4794786E1,2.5642035E2,2.6820343E2,3.078003E0,0E0,0E0,1.7162735E1,1.4990076E2,1.4758319E2,7.770386E-1,2.7991595E2,8.005371E-1,6.152978E0,1.0138985E1,0E0,0E0,8.907246E1,8.2988525E1,1.2785361E2,6.3964844E-2,1.717987E-1,2.7766498E2,2.3418274E2,2.9541016E-2,1.8796738E1,0E0,0E0,5.0841103E0,0E0,4.820401E1,0E0,8.639592E1,0E0,3.785067E1,4.270665E1,0E0,0E0,0E0,0E0,3.2301193E2,3.7128723E2,1.2377405E2,1.1624235E2,0E0,0E0,0E0,0E0,0E0,0E0,0E0,0E0,0E0,0E0,0E0,0E0,0E0,0E0,0E0,0E0,0E0,0E0,0E0,0E0,0E0,0E0],"parents":[2147483647,0,0,1,1,2,2,3,3,4,4,5,5,6,6,7,7,10,10,11,11,12,12,13,13,14,14,15,15,16,16,17,17,20,20,21,21,22,22,23,23,24,24,25,25,26,26,27,27,28,28,31,31,33,33,35,35,37,37,38,38,43,43,44,44,45,45,46,46],"right_children":[2,4,6,8,10,12,14,16,-1,-1,18,20,22,24,26,28,30,32,-1,-1,34,36,38,40,42,44,46,48,50,-1,-1,52,-1,54,-1,56,-1,58,60,-1,-1,-1,-1,62,64,66,68,-1,-1,-1,-1,-1,-1,-1,-1,-1,-1,-1,-1,-1,-1,-1,-1,-1,-1,-1,-1,-1,-1],"split_conditions":[-3.6288598E0,4.3274868E-1,-8.217739E-3,3.2805425E-1,1.0138526E0,-1.368939E0,-1.6646813E0,2.3831737E0,-2.2457954E-1,-3.92918E-1,-7.3954797E-1,-3.978849E-1,1.5637852E0,-1.777208E0,8.388056E-1,4.3102636E0,-1.5086058E0,2.8742534E-1,-2.766498E-1,-3.1698015E-1,-4.556266E-1,-7.71449E-1,-4.1639858E-1,5.610114E-1,1.2390622E0,4.1928872E-2,1.2739449E0,-2.710099E0,-4.992389E-1,2.5125566E-1,-2.7743036E-1,-7.819201E0,-4.192445E-1,-5.010591E-1,-3.1873003E-1,1.582371E0,-3.0730549E-1,1.5168167E0,-4.4313407E-1,-4.652042E-1,-3.1406626E-1,-3.1966916E-1,-3.7890643E-1,-5.495903E-1,3.210949E-2,-2.87065E0,-5.067556E-1,2.014294E-1,2.972423E-1,-6.8322375E-2,3.0007517E-1,-2.1572897E-1,2.6451054E-1,-3.3025557E-1,2.9887056E-1,-3.0501878E-1,1.8093131E-1,-3.0816042E-1,1.283382E-1,-2.916729E-1,2.9301122E-1,1.467981E-1,-3.2252282E-2,5.371101E-3,-2.7696642E-1,2.1290784E-1,-3.2303542E-1,2.8826502E-1,-3.1335488E-1],"split_indices":[14,7,4,12,11,10,24,16,0,0,12,1,16,14,3,27,6,24,0,0,11,8,4,15,4,14,22,24,15,0,0,14,0,6,0,22,0,0,5,0,0,0,0,0,12,19,8,0,0,0,0,0,0,0,0,0,0,0,0,0,0,0,0,0,0,0,0,0,0],"split_type":[0,0,0,0,0,0,0,0,0,0,0,0,0,0,0,0,0,0,0,0,0,0,0,0,0,0,0,0,0,0,0,0,0,0,0,0,0,0,0,0,0,0,0,0,0,0,0,0,0,0,0,0,0,0,0,0,0,0,0,0,0,0,0,0,0,0,0,0,0],"sum_hessian":[1.0019908E4,1.7236465E3,8.296262E3,1.6333503E3,9.029613E1,1.8214294E3,6.474832E3,1.6321165E3,1.2338527E0,5.885912E0,8.441021E1,2.8412585E2,1.5373036E3,2.248669E2,6.2499653E3,1.6252316E3,6.8849497E0,7.895094E1,5.4592657E0,6.871125E1,2.1541463E2,1.3143352E3,2.2296838E2,3.0631212E1,1.9423569E2,5.5400522E3,7.099129E2,1.4991522E3,1.2607936E2,4.8411684E0,2.043781E0,7.775216E1,1.1987835E0,1.8901518E2,2.6399446E1,1.299076E2,1.1844276E3,1.1897952E2,1.0398885E2,1.9049835E1,1.1581376E1,1.4694432E2,4.7291374E1,3.6277805E3,1.9122717E3,5.587281E2,1.5118477E2,8.944661E0,1.4902075E3,1.3630525E1,1.1244884E2,1.327452E0,7.642471E1,1.0870025E1,1.7814516E2,6.27295E1,6.717809E1,9.77354E1,2.1244123E1,1.1976995E1,9.2011856E1,1.7691107E3,1.8586699E3,1.2930026E3,6.1926917E2,4.1243526E1,5.1748456E2,1.1341848E2,3.776629E1],"tree_param":{"num_deleted":"0","num_feature":"30","num_nodes":"69","size_leaf_vector":"1"}},{"base_weights":[-1.5562472E-2,8.272295E-1,-2.0598592E-1,8.988359E-1,-4.7253004E-1,-1.178168E-1,-7.117258E-1,9.271929E-1,-7.132461E-1,8.919033E-1,-1.2615967E0,-4.7543627E-1,3.865343E-2,5.777536E-1,-9.062726E-1,9.4993454E-1,-3.4807274E-1,2.4486142E-1,-5.898942E-1,3.0590326E-1,-2.5570685E-1,-3.0754524E-1,-1.4583911E0,-3.588579E-2,-8.267268E-1,-9.2128885E-1,1.1822203E-1,8.421192E-1,-3.4827822E-1,-1.0455024E0,-1.0622651E-1,9.609009E-1,-6.0223866E-1,-1.6533061E0,-2.9444394E-1,3.0707896E-1,-1.1261066E0,-9.657965E-1,5.0676095E-1,-1.272956E0,1.5673095E-1,-1.2599334E0,1.6494435E-1,9.8114556E-1,-3.597519E-1,2.2583508E-1,-1.0572585E0,-3.656476E-1,3.0926827E-1,2.9134625E-1,-1.6650073E-2,-5.279477E-1,-2.481276E-1,1.6807997E-1,-2.0561892E-1,-3.1449062E-1,-4.018502E-1,5.4346565E-2,-3.0370203E-1,2.899986E-1,-3.1784478E-1,2.1959262E-1,-3.929945E-1,1.5149756E-1,-4.8254773E-1,-4.7860172E-1,-3.4116694E-1,-2.0589904E-1,6.9660984E-2,-1.9630088E-1,3.040744E-1,-3.1305203E-1,-3.5868448E-1,2.6559561E-1,-3.2309094E-1],"categories":[],"categories_nodes":[],"categories_segments":[],"categories_sizes":[],"default_left":[0,0,0,0,0,0,0,0,0,0,0,0,0,0,0,0,0,0,0,0,0,0,0,0,0,0,0,0,0,0,0,0,0,0,0,0,0,0,0,0,0,0,0,0,0,0,0,0,0,0,0,0,0,0,0,0,0,0,0,0,0,0,0,0,0,0,0,0,0,0,0,0,0,0,0],"id":14,"left_children":[1,3,5,7,9,11,13,15,17,19,21,23,25,27,29,31,-1,-1,-1,-1,-1,-1,33,35,37,39,41,43,-1,45,47,49,-1,51,-1,53,55,57,59,61,63,65,67,69,-1,-1,71,-1,73,-1,-1,-1,-1,-1,-1,-1,-1,-1,-1,-1,-1,-1,-1,-1,-1,-1,-1,-1,-1,-1,-1,-1,-1,-1,-1],"loss_changes":[1.4046556E3,1.5055725E2,3.182613E2,7.0567505E1,9.2513535E1,3.4027014E2,2.6635638E2,7.2461914E1,5.334954E1,7.931526E0,1.0267105E0,2.8575125E2,3.2326437E2,6.511075E1,1.0249512E2,5.0173462E1,0E0,0E0,0E0,0E0,0E0,0E0,9.06826E-1,3.081334E2,1.912461E2,1.2301364E2,2.5183746E2,3.571176E1,0E0,1.7380432E1,6.401189E1,1.55061035E1,0E0,1.15924835E-1,0E0,1.5792949E2,1.8699036E0,4.992737E1,7.147148E1,1.9100372E1,5.0347107E1,3.4644928E0,2.1662099E2,6.736252E0,0E0,0E0,2.3608398E-1,0E0,8.1625114E1,0E0,0E0,0E0,0E0,0E0,0E0,0E0,0E0,0E0,0E0,0E0,0E0,0E0,0E0,0E0,0E0,0E0,0E0,0E0,0E0,0E0,0E0,0E0,0E0,0E0,0E0],"parents":[2147483647,0,0,1,1,2,2,3,3,4,4,5,5,6,6,7,7,8,8,9,9,10,10,11,11,12,12,13,13,14,14,15,15,22,22,23,23,24,24,25,25,26,26,27,27,29,29,30,30,31,31,33,33,35,35,36,36,37,37,38,38,39,39,40,40,41,41,42,42,43,43,46,46,48,48],"right_children":[2,4,6,8,10,12,14,16,18,20,22,24,26,28,30,32,-1,-1,-1,-1,-1,-1,34,36,38,40,42,44,-1,46,48,50,-1,52,-1,54,56,58,60,62,64,66,68,70,-1,-1,72,-1,74,-1,-1,-1,-1,-1,-1,-1,-1,-1,-1,-1,-1,-1,-1,-1,-1,-1,-1,-1,-1,-1,-1,-1,-1,-1,-1],"split_conditions":[-2.7330298E0,6.9273025E-2,2.3636413E-1,3.3765695E0,-2.87065E0,-8.809334E-2,-1.9709798E0,1.7501111E0,-2.1687856E0,-6.76043E-2,1.2390622E0,-2.1328042E-1,-9.522296E-1,-1.5994452E-1,2.2141497E0,1.8156208E0,-3.4807274E-1,2.4486142E-1,-5.898942E-1,3.0590326E-1,-2.5570685E-1,-3.0754524E-1,7.948188E-1,5.615049E-1,2.1811419E0,8.990625E-1,-6.810541E-1,9.270778E-1,-3.4827822E-1,-3.1351907E0,-1.5895781E-1,1.221412E0,-6.0223866E-1,5.285677E-2,-2.9444394E-1,-1.7157692E-1,2.8123376E-1,-1.5621127E0,-3.305394E-1,-4.2624645E0,-2.5335565E-1,-4.9260688E-1,-1.0618588E0,6.015629E-1,-3.597519E-1,2.2583508E-1,2.0259259E0,-3.656476E-1,-1.86913E-2,2.9134625E-1,-1.6650073E-2,-5.279477E-1,-2.481276E-1,1.6807997E-1,-2.0561892E-1,-3.1449062E-1,-4.018502E-1,5.4346565E-2,-3.0370203E-1,2.899986E-1,-3.1784478E-1,2.1959262E-1,-3.929945E-1,1.5149756E-1,-4.8254773E-1,-4.7860172E-1,-3.4116694E-1,-2.0589904E-1,6.9660984E-2,-1.9630088E-1,3.040744E-1,-3.1305203E-1,-3.5868448E-1,2.6559561E-1,-3.2309094E-1],"split_indices":[12,3,8,17,19,18,12,14,10,6,4,20,12,16,4,16,0,0,0,0,0,0,3,1,19,2,28,17,0,10,12,9,0,8,0,29,2,10,3,14,8,12,0,4,0,0,17,0,12,0,0,0,0,0,0,0,0,0,0,0,0,0,0,0,0,0,0,0,0,0,0,0,0,0,0],"split_type":[0,0,0,0,0,0,0,0,0,0,0,0,0,0,0,0,0,0,0,0,0,0,0,0,0,0,0,0,0,0,0,0,0,0,0,0,0,0,0,0,0,0,0,0,0,0,0,0,0,0,0,0,0,0,0,0,0,0,0,0,0,0,0,0,0,0,0,0,0,0,0,0,0,0,0],"sum_hessian":[8.750377E3,1.6120938E3,7.138283E3,1.52821E3,8.3883766E1,6.079615E3,1.0586682E3,1.5022104E3,2.5999466E1,3.0688204E1,5.3195564E1,1.8497936E3,4.2298213E3,1.3852675E2,9.201414E2,1.48656E3,1.5650451E1,1.1865494E1,1.4133973E1,2.898066E1,1.7075446E0,2.6983952E1,2.6211613E1,8.2216547E2,1.027628E3,3.2295886E2,3.9068625E3,1.2069135E2,1.7835407E1,7.834866E2,1.3665485E2,1.4817406E3,4.8193746E0,1.6855875E1,9.355738E0,6.2596576E2,1.9619972E2,9.3082764E2,9.680044E1,2.4338274E2,7.957612E1,1.2725615E2,3.7796064E3,1.134818E2,7.2095556E0,4.6792502E0,7.788073E2,3.663129E1,1.0002355E2,1.4669866E3,1.475414E1,1.3929969E1,2.9259062E0,4.9908185E2,1.2688389E2,1.4811038E2,4.8089348E1,3.618736E1,8.946403E2,7.5124275E1,2.1676163E1,4.072786E0,2.3930994E2,6.7059814E1,1.2516307E1,3.0872118E1,9.638403E1,2.7608484E2,3.5035217E3,1.8339998E0,1.116478E2,7.1616736E2,6.2639996E1,7.091586E1,2.9107695E1],"tree_param":{"num_deleted":"0","num_feature":"30","num_nodes":"75","size_leaf_vector":"1"}},{"base_weights":[-1.748624E-2,9.4039905E-1,-1.5503499E-1,9.443131E-1,-2.8480336E-1,-2.6886165E-1,2.4956216E-1,3.0219382E-1,9.491623E-1,-8.524376E-1,-1.4805308E-1,-1.6171108E-1,6.236813E-1,2.5129068E-1,-1.9606014E-1,9.7212774E-1,8.087582E-1,3.0090487E-1,-9.265898E-1,-6.0549002E-2,-1.024094E0,-8.593235E-1,2.9775637E-1,6.9026846E-1,-3.6328405E-1,4.8645735E-2,9.7446126E-1,-8.0792016E-1,8.99503E-1,-1.0046366E0,1.164422E-2,-8.240085E-1,2.3873636E-2,2.4631299E-1,-1.0552992E0,3.6578465E-1,-1.3474535E0,9.515618E-1,-2.713085E-1,-5.3558767E-1,7.500073E-1,1.6108458E-1,2.9372913E-1,2.7915236E-1,-1.0124169E-1,4.644919E-2,-3.1489098E-1,-3.0925292E-1,2.3741004E-1,1.4570525E-1,-3.4746328E-1,-4.2217072E-2,1.4987336E-1,-3.0986875E-1,-3.6651465E-1,2.6893705E-1,-3.7186447E-1,2.117193E-1,-4.1802755E-1,3.0643415E-1,-3.357233E-1,2.5168753E-1,-2.574032E-1,2.72094E-1,-4.45891E-1,2.323976E-1,-5.070044E-1],"categories":[],"categories_nodes":[],"categories_segments":[],"categories_sizes":[],"default_left":[0,0,0,0,0,0,0,0,0,0,0,0,0,0,0,0,0,0,0,0,0,0,0,0,0,0,0,0,0,0,0,0,0,0,0,0,0,0,0,0,0,0,0,0,0,0,0,0,0,0,0,0,0,0,0,0,0,0,0,0,0,0,0,0,0,0,0],"id":15,"left_children":[1,3,5,7,-1,9,11,13,15,17,19,21,23,-1,-1,25,27,-1,29,31,33,35,37,39,-1,-1,41,-1,43,45,47,49,51,-1,53,55,57,59,61,63,65,-1,-1,-1,-1,-1,-1,-1,-1,-1,-1,-1,-1,-1,-1,-1,-1,-1,-1,-1,-1,-1,-1,-1,-1,-1,-1],"loss_changes":[1.0109181E3,8.022522E0,3.0904883E2,2.708435E0,0E0,3.6905444E2,2.2683578E2,4.987791E0,2.2907715E0,1.2446838E2,3.3260156E2,2.2550398E2,9.512814E1,0E0,0E0,1.3826904E0,4.69403E1,0E0,6.3273254E1,2.5439021E2,2.3554382E1,1.6752264E2,1.5816975E2,5.4992706E1,0E0,0E0,1.1223755E0,0E0,5.579956E0,4.177716E1,5.554874E1,1.7257324E2,2.783943E2,0E0,1.8435669E-1,6.95755E1,1.9855621E1,2.9756088E1,1.4904115E2,4.9655914E1,4.409018E1,0E0,0E0,0E0,0E0,0E0,0E0,0E0,0E0,0E0,0E0,0E0,0E0,0E0,0E0,0E0,0E0,0E0,0E0,0E0,0E0,0E0,0E0,0E0,0E0,0E0,0E0],"parents":[2147483647,0,0,1,1,2,2,3,3,5,5,6,6,7,7,8,8,9,9,10,10,11,11,12,12,15,15,16,16,18,18,19,19,20,20,21,21,22,22,23,23,26,26,28,28,29,29,30,30,31,31,32,32,34,34,35,35,36,36,37,37,38,38,39,39,40,40],"right_children":[2,4,6,8,-1,10,12,14,16,18,20,22,24,-1,-1,26,28,-1,30,32,34,36,38,40,-1,-1,42,-1,44,46,48,50,52,-1,54,56,58,60,62,64,66,-1,-1,-1,-1,-1,-1,-1,-1,-1,-1,-1,-1,-1,-1,-1,-1,-1,-1,-1,-1,-1,-1,-1,-1,-1,-1],"split_conditions":[-2.4211972E0,2.56003E-1,1.7600776E0,-1.4740664E1,-2.8480336E-1,-3.7397805E-1,4.620148E-1,4.6231337E0,1.6199461E0,-7.5778933E0,2.3636413E-1,9.0592735E-2,1.4786117E0,2.5129068E-1,-1.9606014E-1,-1.9807744E0,-4.4422803E0,3.0090487E-1,1.753758E0,-7.0382094E-1,-3.1351907E0,-1.3226664E0,2.7379495E-1,-1.3192539E0,-3.6328405E-1,4.8645735E-2,4.3306526E-2,-8.0792016E-1,-4.919127E0,-1.5621127E0,1.4483713E0,-1.983714E-1,3.7758663E-1,2.4631299E-1,2.0259259E0,-3.6157417E-1,-4.9340296E0,3.4105775E-1,-2.7330298E0,-5.469948E0,9.719704E-1,1.6108458E-1,2.9372913E-1,2.7915236E-1,-1.0124169E-1,4.644919E-2,-3.1489098E-1,-3.0925292E-1,2.3741004E-1,1.4570525E-1,-3.4746328E-1,-4.2217072E-2,1.4987336E-1,-3.0986875E-1,-3.6651465E-1,2.6893705E-1,-3.7186447E-1,2.117193E-1,-4.1802755E-1,3.0643415E-1,-3.357233E-1,2.5168753E-1,-2.574032E-1,2.72094E-1,-4.45891E-1,2.323976E-1,-5.070044E-1],"split_indices":[17,3,4,1,0,18,11,4,28,7,8,1,14,0,0,0,5,0,16,9,10,7,1,25,0,0,11,0,14,10,19,18,29,0,17,16,14,27,12,14,1,0,0,0,0,0,0,0,0,0,0,0,0,0,0,0,0,0,0,0,0,0,0,0,0,0,0],"split_type":[0,0,0,0,0,0,0,0,0,0,0,0,0,0,0,0,0,0,0,0,0,0,0,0,0,0,0,0,0,0,0,0,0,0,0,0,0,0,0,0,0,0,0,0,0,0,0,0,0,0,0,0,0,0,0,0,0,0,0,0,0,0,0,0,0,0,0],"sum_hessian":[7.6705513E3,9.624238E2,6.7081274E3,9.6093384E2,1.4899968E0,5.235533E3,1.4725944E3,7.6770587E0,9.532568E2,8.9690436E2,4.3386284E3,7.01736E2,7.708583E2,4.9996123E0,2.6774464E0,8.1416315E2,1.3909361E2,3.398545E1,8.629189E2,3.945589E3,3.930394E2,2.7830838E2,4.2342767E2,7.444621E2,2.6396223E1,2.5413177E0,8.116218E2,2.7890055E0,1.363046E2,7.9658435E2,6.633459E1,3.9198544E2,3.5536038E3,6.1156387E0,3.8692377E2,7.936608E1,1.9894229E2,1.9673003E2,2.2669763E2,3.4223385E1,7.102387E2,9.734436E0,8.0188745E2,1.3321336E2,3.0912416E0,2.9669859E1,7.669145E2,2.824672E1,3.8087864E1,7.959813E1,3.123873E2,2.6406301E3,9.129736E2,3.473671E2,3.955667E1,5.9980125E1,1.9385952E1,4.0425496E0,1.9489973E2,1.907972E2,5.932824E0,7.822872E1,1.484689E2,1.3613282E1,2.0610102E1,7.0381067E2,6.428034E0],"tree_param":{"num_deleted":"0","num_feature":"30","num_nodes":"67","size_leaf_vector":"1"}},{"base_weights":[-1.6120749E-2,8.94924E-1,-1.3568434E-1,9.3196416E-1,3.5078865E-1,-6.752065E-1,-6.847726E-2,9.3681943E-1,9.067197E-2,-7.5476074E-1,6.174135E-1,-3.0395806E-1,-2.1735337E-1,-5.0132173E-1,1.9726772E-3,9.576037E-1,7.15893E-1,2.1765094E-1,-2.3469824E-1,2.0025665E-1,-3.50074E-1,7.043665E-1,-3.7717405E-1,2.0297694E-1,-3.0264008E-1,-9.059268E-1,2.4472372E-1,5.8057654E-1,-1.02566674E-1,3.7609237E-1,9.608404E-1,-1.5467973E0,9.688545E-1,7.8526556E-1,-1.9845773E-1,-6.3218945E-1,8.267664E-1,-1.1905682E0,-1.6936904E-1,6.232723E-1,-3.4161067E-1,7.192395E-1,-3.6015826E-1,4.5332704E-2,-4.8972663E-1,7.5398845E-4,2.0013969E-1,2.9177004E-1,2.2813474E-1,-9.952957E-1,2.20042E-1,2.95431E-1,1.0051602E-1,2.7867633E-1,1.202815E-1,-3.0288443E-1,2.08217E-1,-2.740532E-1,2.8385016E-1,-4.2709222E-1,-3.1564277E-1,1.3388662E-1,-3.178344E-1,2.6592037E-1,-3.4108606E-1,-4.1037214E-1,2.4763831E-1,7.525654E-2,-7.5146034E-2,1.4831299E-1,-2.1510147E-1],"categories":[],"categories_nodes":[],"categories_segments":[],"categories_sizes":[],"default_left":[0,0,0,0,0,0,0,0,0,0,0,0,0,0,0,0,0,0,0,0,0,0,0,0,0,0,0,0,0,0,0,0,0,0,0,0,0,0,0,0,0,0,0,0,0,0,0,0,0,0,0,0,0,0,0,0,0,0,0,0,0,0,0,0,0,0,0,0,0,0,0],"id":16,"left_children":[1,3,5,7,9,11,13,15,17,19,21,-1,23,25,27,29,31,-1,-1,-1,-1,33,-1,35,-1,37,39,41,43,45,47,49,51,53,-1,55,57,59,61,63,-1,65,-1,67,69,-1,-1,-1,-1,-1,-1,-1,-1,-1,-1,-1,-1,-1,-1,-1,-1,-1,-1,-1,-1,-1,-1,-1,-1,-1,-1],"loss_changes":[7.3429596E2,1.5435303E1,2.1602364E2,2.9035034E0,1.5630765E1,1.01907135E2,1.6161835E2,2.6541138E0,3.507762E0,6.9026275E0,7.7318954E0,0E0,9.386833E1,2.2416238E2,2.7582593E2,8.842163E-1,3.9562298E1,0E0,0E0,0E0,0E0,5.025568E0,0E0,9.675699E1,0E0,1.0068994E2,1.3773808E2,1.732056E2,2.2117992E2,5.75275E-1,8.0548096E-1,3.0991106E1,2.796135E-1,1.7783699E0,0E0,4.0518314E1,2.2926666E1,9.695129E0,7.461478E1,9.646094E1,0E0,1.4479956E2,0E0,1.7002881E2,2.3915906E2,0E0,0E0,0E0,0E0,0E0,0E0,0E0,0E0,0E0,0E0,0E0,0E0,0E0,0E0,0E0,0E0,0E0,0E0,0E0,0E0,0E0,0E0,0E0,0E0,0E0,0E0],"parents":[2147483647,0,0,1,1,2,2,3,3,4,4,5,5,6,6,7,7,8,8,9,9,10,10,12,12,13,13,14,14,15,15,16,16,21,21,23,23,25,25,26,26,27,27,28,28,29,29,30,30,31,31,32,32,33,33,35,35,36,36,37,37,38,38,39,39,41,41,43,43,44,44],"right_children":[2,4,6,8,10,12,14,16,18,20,22,-1,24,26,28,30,32,-1,-1,-1,-1,34,-1,36,-1,38,40,42,44,46,48,50,52,54,-1,56,58,60,62,64,-1,66,-1,68,70,-1,-1,-1,-1,-1,-1,-1,-1,-1,-1,-1,-1,-1,-1,-1,-1,-1,-1,-1,-1,-1,-1,-1,-1,-1,-1],"split_conditions":[-3.6288598E0,4.3274868E-1,-3.3395755E-1,2.3831737E0,1.705989E0,5.180971E-1,-1.045389E0,4.250989E0,-2.5802965E0,-2.8988512E0,2.8742534E-1,-3.0395806E-1,-4.371854E-1,1.6047606E0,-8.7500495E-1,-2.710099E0,-5.703086E-1,2.1765094E-1,-2.3469824E-1,2.0025665E-1,-3.50074E-1,-3.8615E-1,-3.7717405E-1,-5.04931E-1,-3.0264008E-1,2.1753618E-1,4.1928872E-2,1.5295176E-1,4.3503222E-1,9.489892E-1,-4.185909E0,-5.6027646E0,-1.0626965E0,-1.913655E0,-1.9845773E-1,2.3445237E0,-8.497573E-3,-7.3908335E-1,-4.817494E-1,9.10356E-2,-3.4161067E-1,-5.915515E-1,-3.6015826E-1,1.4872746E-1,-8.949872E-1,7.5398845E-4,2.0013969E-1,2.9177004E-1,2.2813474E-1,-9.952957E-1,2.20042E-1,2.95431E-1,1.0051602E-1,2.7867633E-1,1.202815E-1,-3.0288443E-1,2.08217E-1,-2.740532E-1,2.8385016E-1,-4.2709222E-1,-3.1564277E-1,1.3388662E-1,-3.178344E-1,2.6592037E-1,-3.4108606E-1,-4.1037214E-1,2.4763831E-1,7.525654E-2,-7.5146034E-2,1.4831299E-1,-2.1510147E-1],"split_indices":[14,7,4,16,11,19,0,27,9,9,24,0,5,4,0,24,26,0,0,0,0,10,0,5,0,21,14,27,15,0,14,3,1,12,0,7,8,14,12,26,0,6,0,16,21,0,0,0,0,0,0,0,0,0,0,0,0,0,0,0,0,0,0,0,0,0,0,0,0,0,0],"split_type":[0,0,0,0,0,0,0,0,0,0,0,0,0,0,0,0,0,0,0,0,0,0,0,0,0,0,0,0,0,0,0,0,0,0,0,0,0,0,0,0,0,0,0,0,0,0,0,0,0,0,0,0,0,0,0,0,0,0,0,0,0,0,0,0,0,0,0,0,0,0,0],"sum_hessian":[6.739011E3,7.810581E2,5.957953E3,7.306115E2,5.044663E1,6.5895734E2,5.2989956E3,7.263063E2,4.305202E0,9.44646E0,4.100017E1,3.7840555E2,2.805518E2,7.408845E2,4.5581113E3,6.608048E2,6.5501465E1,2.5904338E0,1.7147682E0,1.9831783E0,7.4632816E0,3.9779343E1,1.220829E0,1.8372214E2,9.682964E1,4.8022714E2,2.6065738E2,6.968172E2,3.861294E3,4.3064547E0,6.5649835E2,6.072189E0,5.942928E1,3.7956352E1,1.8229898E0,7.8546265E1,1.0517587E2,3.4592767E2,1.3429948E2,2.0508829E2,5.556909E1,6.4703986E2,4.977733E1,2.7946064E3,1.0666875E3,2.3275042E0,1.9789507E0,6.165653E2,3.993308E1,3.1618009E0,2.910388E0,5.7433315E1,1.9959619E0,2.6597584E1,1.1358767E1,6.1331253E1,1.7215006E1,6.325814E0,9.885006E1,1.2543819E2,2.2048949E2,7.968255E1,5.4616936E1,1.7884927E2,2.6239016E1,3.0759953E1,6.162799E2,1.6490621E3,1.1455443E3,1.999104E2,8.6677716E2],"tree_param":{"num_deleted":"0","num_feature":"30","num_nodes":"71","size_leaf_vector":"1"}},{"base_weights":[-1.4248593E-2,8.9593333E-1,-1.1160465E-1,9.0060186E-1,-2.4722639E-1,-4.7028306E-1,-1.4024834E-2,9.5085645E-1,7.426305E-1,-8.0071443E-1,1.8842004E-1,-1.1870251E0,2.242157E-2,-1.4716575E-2,9.551671E-1,-9.736002E-1,9.0643454E-1,-3.0841586E-1,-9.9685293E-1,-8.2949835E-1,4.7271234E-1,-1.2254722E0,1.821486E-1,4.426382E-1,-7.228343E-2,9.5911354E-1,-1.40487505E-2,8.263274E-1,-3.2623153E0,9.4990593E-1,-3.4965685E-1,3.8001975E-1,-1.0599759E0,5.5962235E-2,-3.1394315E-1,5.22267E-1,-3.343321E-1,-1.4175159E0,6.0787797E-1,-3.05441E-1,-1.3167931E0,-3.3044884E-1,5.705729E-1,5.554883E-1,-1.7305216E-1,2.19748E-1,2.921314E-1,3.850294E-2,2.7498227E-1,2.9141432E-1,1.2023968E-1,-3.2076085E-1,2.9140437E-1,9.364441E-2,-3.2629713E-1,-2.9930925E-1,2.2485892E-1,-2.5433382E-1,2.7577066E-1,-5.1551306E-1,-3.1487054E-1,2.194862E-1,-3.8129044E-1,-4.4857106E-1,-3.5469756E-1,-7.6804444E-2,2.0697719E-1,-2.1364798E-1,2.2530429E-1,-2.408471E-1,-7.542185E-3],"categories":[],"categories_nodes":[],"categories_segments":[],"categories_sizes":[],"default_left":[0,0,0,0,0,0,0,0,0,0,0,0,0,0,0,0,0,0,0,0,0,0,0,0,0,0,0,0,0,0,0,0,0,0,0,0,0,0,0,0,0,0,0,0,0,0,0,0,0,0,0,0,0,0,0,0,0,0,0,0,0,0,0,0,0,0,0,0,0,0,0],"id":17,"left_children":[1,3,5,7,-1,9,11,13,15,17,19,21,23,-1,25,27,29,31,33,35,37,39,-1,41,43,45,-1,47,-1,49,-1,51,53,55,-1,57,-1,59,61,-1,63,-1,65,67,69,-1,-1,-1,-1,-1,-1,-1,-1,-1,-1,-1,-1,-1,-1,-1,-1,-1,-1,-1,-1,-1,-1,-1,-1,-1,-1],"loss_changes":[5.3710406E2,5.4453125E0,1.9163461E2,3.934784E0,0E0,2.5502896E2,1.8409322E2,1.9430542E0,4.182956E1,7.5009674E1,1.1383137E2,9.695343E0,1.6625145E2,0E0,1.7773132E0,2.4373256E2,1.3129898E1,1.1613345E2,2.9176575E1,3.3684853E1,7.931284E1,1.0709991E0,0E0,1.524105E2,2.1577362E2,7.3635864E-1,0E0,6.43301E-1,0E0,1.1588516E0,0E0,1.01712555E2,4.4111786E0,1.977495E1,0E0,9.286999E0,0E0,4.9811172E-1,6.771716E1,0E0,2.7209473E-1,0E0,7.024077E1,1.17477066E2,2.7371027E2,0E0,0E0,0E0,0E0,0E0,0E0,0E0,0E0,0E0,0E0,0E0,0E0,0E0,0E0,0E0,0E0,0E0,0E0,0E0,0E0,0E0,0E0,0E0,0E0,0E0,0E0],"parents":[2147483647,0,0,1,1,2,2,3,3,5,5,6,6,7,7,8,8,9,9,10,10,11,11,12,12,14,14,15,15,16,16,17,17,18,18,19,19,20,20,21,21,23,23,24,24,25,25,27,27,29,29,31,31,32,32,33,33,35,35,37,37,38,38,40,40,42,42,43,43,44,44],"right_children":[2,4,6,8,-1,10,12,14,16,18,20,22,24,-1,26,28,30,32,34,36,38,40,-1,42,44,46,-1,48,-1,50,-1,52,54,56,-1,58,-1,60,62,-1,64,-1,66,68,70,-1,-1,-1,-1,-1,-1,-1,-1,-1,-1,-1,-1,-1,-1,-1,-1,-1,-1,-1,-1,-1,-1,-1,-1,-1,-1],"split_conditions":[-2.4211972E0,2.56003E-1,-2.0942746E-1,2.4131956E0,-2.4722639E-1,8.471594E-1,-1.0090393E0,-1.9807744E0,-5.703086E-1,-6.0872626E-1,4.964546E-1,6.543698E0,-1.2994443E0,-1.4716575E-2,5.889797E-1,-8.1665504E-1,-4.546503E0,-4.0731552E-1,-1.5621127E0,-6.2172728E0,-1.3048866E0,4.9354225E-1,1.821486E-1,-2.0924866E-1,-1.7091705E0,8.245181E-1,-1.40487505E-2,1.3857825E-1,-3.2623153E0,1.1339644E0,-3.4965685E-1,-4.8152542E-1,-3.6949527E0,8.2868016E-1,-3.1394315E-1,-1.4814814E0,-3.343321E-1,-7.3954797E-1,5.627432E-1,-3.05441E-1,-5.8129567E-1,-3.3044884E-1,-4.2068407E-1,-2.839201E-1,-5.915515E-1,2.19748E-1,2.921314E-1,3.850294E-2,2.7498227E-1,2.9141432E-1,1.2023968E-1,-3.2076085E-1,2.9140437E-1,9.364441E-2,-3.2629713E-1,-2.9930925E-1,2.2485892E-1,-2.5433382E-1,2.7577066E-1,-5.1551306E-1,-3.1487054E-1,2.194862E-1,-3.8129044E-1,-4.4857106E-1,-3.5469756E-1,-7.6804444E-2,2.0697719E-1,-2.1364798E-1,2.2530429E-1,-2.408471E-1,-7.542185E-3],"split_indices":[17,3,18,27,0,10,27,0,26,9,5,17,19,0,1,26,14,22,10,27,27,4,0,5,3,4,0,2,0,15,0,22,14,19,0,1,0,12,16,0,12,0,25,19,6,0,0,0,0,0,0,0,0,0,0,0,0,0,0,0,0,0,0,0,0,0,0,0,0,0,0],"split_type":[0,0,0,0,0,0,0,0,0,0,0,0,0,0,0,0,0,0,0,0,0,0,0,0,0,0,0,0,0,0,0,0,0,0,0,0,0,0,0,0,0,0,0,0,0,0,0,0,0,0,0,0,0,0,0,0,0,0,0,0,0,0,0,0,0,0,0,0,0,0,0],"sum_hessian":[6.0591924E3,5.846931E2,5.474499E3,5.835855E2,1.107589E0,1.1700127E3,4.3044863E3,4.3893155E2,1.4465395E2,7.790134E2,3.9099933E2,1.2876341E2,4.175723E3,1.8395834E0,4.3709198E2,1.2172707E1,1.3248125E2,2.2267702E2,5.563364E2,8.494238E1,3.0605695E2,1.2637238E2,2.3910236E0,7.673283E2,3.4083948E3,4.3541983E2,1.6721323E0,1.1075719E1,1.0969877E0,1.3028922E2,2.1920335E0,1.1647721E2,1.061998E2,2.5036615E1,5.312998E2,1.464301E1,7.029938E1,1.9791721E1,2.862652E2,4.2356003E1,8.401638E1,5.81282E1,7.092001E2,4.7081107E2,2.9375837E3,2.9548615E1,4.0587122E2,1.5458529E0,9.529866E0,1.24645424E2,5.6437883E0,3.3519566E1,8.295764E1,1.8968858E0,1.0430291E2,9.764301E0,1.5272314E1,3.034498E0,1.1608513E1,8.869331E0,1.0922389E1,2.6914935E2,1.711585E1,3.1755753E1,5.2260628E1,8.933676E1,6.1986334E2,6.2562042E1,4.0824902E2,5.5787213E2,2.3797117E3],"tree_param":{"num_deleted":"0","num_feature":"30","num_nodes":"71","size_leaf_vector":"1"}},{"base_weights":[-1.2119477E-2,8.4879035E-1,-9.46297E-2,8.981295E-1,2.4779442E-1,-3.4931265E-2,-6.2692213E-1,9.0453756E-1,1.218722E-3,-8.0466795E-1,5.0827086E-1,4.9663868E-2,-4.0892267E-1,-8.7273544E-1,4.1424572E-1,7.44519E-1,9.429699E-1,1.896065E-1,-2.1027325E-1,1.650826E-1,-3.408849E-1,6.075927E-1,-3.645091E-1,1.1316753E-1,-1.0148134E0,-8.036915E-1,5.439874E-1,7.0742226E-1,-9.8041284E-1,6.73689E-1,-2.9813805E-1,-1.0446596E0,9.2862856E-1,-1.2288789E-1,9.487182E-1,2.6913834E-1,1.955868E-1,1.6517675E-1,-6.520445E-1,2.4569592E-1,-1.1903608E0,-1.1162405E0,2.975877E-1,-1.3266878E0,8.7384474E-1,-1.6761595E-1,8.4832275E-1,-2.2163015E-2,-3.1267738E-1,8.704636E-1,-3.5136622E-1,2.3344387E-1,-7.248754E-1,2.8532928E-1,8.687775E-2,5.4515395E-2,2.8648645E-1,-3.5634395E-1,2.08033E-1,-1.4180663E-1,6.642463E-2,2.8473982E-1,-2.9283795E-1,-3.3023453E-1,2.6183635E-1,-3.3267838E-1,-4.1871205E-1,-3.0232263E-1,-4.998974E-1,2.2369567E-1,-3.2163954E-1,-3.3023447E-1,-7.475229E-1,-3.5612646E-1,3.258965E-1,-5.3571284E-2,2.894649E-1,2.4967583E-1,-3.738003E-1,2.7923912E-1,-5.331915E-1],"categories":[],"categories_nodes":[],"categories_segments":[],"categories_sizes":[],"default_left":[0,0,0,0,0,0,0,0,0,0,0,0,0,0,0,0,0,0,0,0,0,0,0,0,0,0,0,0,0,0,0,0,0,0,0,0,0,0,0,0,0,0,0,0,0,0,0,0,0,0,0,0,0,0,0,0,0,0,0,0,0,0,0,0,0,0,0,0,0,0,0,0,0,0,0,0,0,0,0,0,0],"id":18,"left_children":[1,3,5,7,9,11,13,15,17,19,21,23,25,27,29,31,33,-1,-1,-1,-1,35,-1,37,39,41,43,45,47,49,-1,51,53,-1,55,-1,57,59,61,63,65,67,69,71,73,-1,75,77,-1,79,-1,-1,-1,-1,-1,-1,-1,-1,-1,-1,-1,-1,-1,-1,-1,-1,-1,-1,-1,-1,-1,-1,-1,-1,-1,-1,-1,-1,-1,-1,-1],"loss_changes":[3.8780133E2,1.393573E1,1.582844E2,2.5327454E0,1.0718242E1,1.4177254E2,1.2892213E2,1.9899902E0,2.271655E0,4.1514225E0,6.002795E0,2.4717596E2,3.11393E2,6.989252E1,3.5965958E1,3.0459957E1,3.1037903E0,0E0,0E0,0E0,0E0,3.3732166E0,0E0,1.3741043E2,4.584561E1,2.0165121E2,1.5093909E2,5.206354E0,2.2566376E1,3.0854927E1,0E0,2.39398E1,8.9767456E-1,0E0,1.4913025E0,0E0,1.0160388E1,1.1601729E2,1.14965E2,2.2909288E1,1.4767456E0,2.552417E1,8.0636894E1,6.9380417E0,9.191325E1,0E0,3.0769958E0,2.6269997E1,0E0,1.3609428E1,0E0,0E0,0E0,0E0,0E0,0E0,0E0,0E0,0E0,0E0,0E0,0E0,0E0,0E0,0E0,0E0,0E0,0E0,0E0,0E0,0E0,0E0,0E0,0E0,0E0,0E0,0E0,0E0,0E0,0E0,0E0],"parents":[2147483647,0,0,1,1,2,2,3,3,4,4,5,5,6,6,7,7,8,8,9,9,10,10,11,11,12,12,13,13,14,14,15,15,16,16,21,21,23,23,24,24,25,25,26,26,27,27,28,28,29,29,31,31,32,32,34,34,36,36,37,37,38,38,39,39,40,40,41,41,42,42,43,43,44,44,46,46,47,47,49,49],"right_children":[2,4,6,8,10,12,14,16,18,20,22,24,26,28,30,32,34,-1,-1,-1,-1,36,-1,38,40,42,44,46,48,50,-1,52,54,-1,56,-1,58,60,62,64,66,68,70,72,74,-1,76,78,-1,80,-1,-1,-1,-1,-1,-1,-1,-1,-1,-1,-1,-1,-1,-1,-1,-1,-1,-1,-1,-1,-1,-1,-1,-1,-1,-1,-1,-1,-1,-1,-1],"split_conditions":[-3.6288598E0,4.3274868E-1,2.3636413E-1,2.3831737E0,1.705989E0,7.8106755E-1,2.6616962E0,-1.2460378E0,-2.5802965E0,-2.8988512E0,2.8742534E-1,1.3588469E0,8.261576E-1,-5.2726665E0,5.350443E-2,-5.703086E-1,-1.3260574E1,1.896065E-1,-2.1027325E-1,1.650826E-1,-3.408849E-1,-2.3989964E0,-3.645091E-1,8.4927577E-1,-1.9600617E0,1.3668393E0,-7.4635595E-2,-1.6933825E-2,-2.4918828E0,9.270778E-1,-2.9813805E-1,-5.000283E-2,1.0232373E0,-1.2288789E-1,-2.710099E0,2.6913834E-1,-2.3582788E-1,-3.3395755E-1,-2.5258322E0,7.4195385E-2,9.9289376E-1,1.4698085E0,-2.3582788E-1,1.6062443E0,-6.099352E-1,-1.6761595E-1,-6.48673E-1,-1.413815E0,-3.1267738E-1,1.1031088E0,-3.5136622E-1,2.3344387E-1,-7.248754E-1,2.8532928E-1,8.687775E-2,5.4515395E-2,2.8648645E-1,-3.5634395E-1,2.08033E-1,-1.4180663E-1,6.642463E-2,2.8473982E-1,-2.9283795E-1,-3.3023453E-1,2.6183635E-1,-3.3267838E-1,-4.1871205E-1,-3.0232263E-1,-4.998974E-1,2.2369567E-1,-3.2163954E-1,-3.3023447E-1,-7.475229E-1,-3.5612646E-1,3.258965E-1,-5.3571284E-2,2.894649E-1,2.4967583E-1,-3.738003E-1,2.7923912E-1,-5.331915E-1],"split_indices":[14,7,8,16,11,1,4,0,9,9,24,25,5,17,3,26,1,0,0,0,0,12,0,2,3,13,27,23,14,17,0,20,15,0,24,0,21,4,16,2,4,17,21,16,26,0,26,15,0,2,0,0,0,0,0,0,0,0,0,0,0,0,0,0,0,0,0,0,0,0,0,0,0,0,0,0,0,0,0,0,0],"split_type":[0,0,0,0,0,0,0,0,0,0,0,0,0,0,0,0,0,0,0,0,0,0,0,0,0,0,0,0,0,0,0,0,0,0,0,0,0,0,0,0,0,0,0,0,0,0,0,0,0,0,0,0,0,0,0,0,0,0,0,0,0,0,0,0,0,0,0,0,0,0,0,0,0,0,0,0,0,0,0,0,0],"sum_hessian":[5.4572563E3,4.7647192E2,4.9807847E3,4.3986636E2,3.660557E1,4.479463E3,5.013216E2,4.3673758E2,3.1287918E0,6.847765E0,2.9757805E1,3.653847E3,8.2561615E2,4.0570007E2,9.56215E1,8.852465E1,3.4821292E2,1.7007052E0,1.4280868E0,1.2167747E0,5.6309905E0,2.8748331E1,1.0094751E0,3.4489841E3,2.0486282E2,5.8388324E2,2.4173288E2,2.5526785E1,3.801733E2,8.118416E1,1.4437337E1,7.823331E0,8.070132E1,1.1762477E0,3.4703668E2,1.6192013E1,1.2556317E1,3.2302197E3,2.187644E2,2.4994133E1,1.798687E2,4.5479605E2,1.2908719E2,3.5782494E1,2.059504E2,2.2592897E0,2.3267494E1,2.3131027E1,3.5704227E2,7.383702E1,7.347137E0,3.5449126E0,4.278418E0,7.748844E1,3.2128792E0,3.0421214E0,3.4399454E2,2.956156E0,9.600162E0,2.6112338E2,2.9690962E3,3.650031E1,1.822641E2,7.7017446E0,1.7292389E1,1.3337651E2,4.649218E1,3.822359E2,7.2560165E1,9.761188E1,3.1475315E1,3.1600023E1,4.182468E0,1.8819782E1,1.871306E2,2.317587E0,2.0949907E1,1.3809774E1,9.321253E0,7.2826035E1,1.0109892E0],"tree_param":{"num_deleted":"0","num_feature":"30","num_nodes":"81","size_leaf_vector":"1"}},{"base_weights":[-1.4528646E-2,5.4360145E-1,-1.2406738E-1,7.0066965E-1,-5.1961076E-1,-7.7372825E-1,-5.7881467E-2,7.441149E-1,-3.1117678E-1,6.533719E-1,-1.2703078E0,-3.0219993E-1,4.58818E-2,-1.1493187E0,-2.0340173E-2,7.719425E-1,-9.082558E-1,7.97111E-1,-1.0707849E0,1.0136264E-1,-1.301325E0,-2.9798824E-1,4.901562E-1,2.0141536E-1,-1.18504E0,3.283372E-1,-1.22922756E-1,-2.7631965E-1,7.9725885E-1,-3.6325002E-1,1.8609671E-1,8.686458E-1,-2.0962028E-1,-6.5695345E-1,1.681787E-1,-3.1218407E-1,-4.341571E-1,-2.8882295E-1,7.9272616E-1,-1.3795009E0,-3.2021672E-1,4.3550736E-1,-1.0878469E0,-5.904854E-1,8.928627E-2,2.5170052E-1,1.6002301E-2,-1.0889421E-1,2.844848E-1,2.7283895E-1,-2.4972838E-1,-5.7717955E-1,-3.7132832E-1,1.5607807E-1,-3.3818257E-1,-4.3449566E-1,-3.041258E-1,-3.1269318E-1,1.26839895E-2,-1.4439265E-1,8.328267E-2],"categories":[],"categories_nodes":[],"categories_segments":[],"categories_sizes":[],"default_left":[0,0,0,0,0,0,0,0,0,0,0,0,0,0,0,0,0,0,0,0,0,0,0,0,0,0,0,0,0,0,0,0,0,0,0,0,0,0,0,0,0,0,0,0,0,0,0,0,0,0,0,0,0,0,0,0,0,0,0,0,0],"id":19,"left_children":[1,3,5,7,9,11,13,15,-1,17,19,-1,21,23,25,27,29,31,33,-1,35,-1,37,-1,39,41,43,-1,45,-1,-1,47,-1,-1,-1,-1,-1,-1,49,51,-1,53,55,57,59,-1,-1,-1,-1,-1,-1,-1,-1,-1,-1,-1,-1,-1,-1,-1,-1],"loss_changes":[3.010779E2,1.352893E2,1.7696245E2,5.395587E1,9.290908E1,7.29048E1,1.5309909E2,3.2326538E1,0E0,1.1130388E1,3.637169E0,0E0,3.9895443E1,8.87648E0,1.2930025E2,2.9748291E1,6.232169E0,4.7640705E0,7.8322673E0,0E0,8.9346313E-1,0E0,2.7343733E1,0E0,1.3237457E0,1.25197975E2,2.771805E2,0E0,2.0683105E1,0E0,0E0,4.024521E0,0E0,0E0,